{"learner":{"attributes":{"best_iteration":"8","best_score":"0.6780437540749094","scikit_learn":"{\"_estimator_type\": \"classifier\"}"},"feature_names":[],"feature_types":[],"gradient_booster":{"model":{"cats":{"enc":[],"feature_segments":[],"sorted_idx":[]},"gbtree_model_param":{"num_parallel_tree":"1","num_trees":"39"},"iteration_indptr":[0,1,2,3,4,5,6,7,8,9,10,11,12,13,14,15,16,17,18,19,20,21,22,23,24,25,26,27,28,29,30,31,32,33,34,35,36,37,38,39],"tree_info":[0,0,0,0,0,0,0,0,0,0,0,0,0,0,0,0,0,0,0,0,0,0,0,0,0,0,0,0,0,0,0,0,0,0,0,0,0,0,0],"trees":[{"base_weights":[8.1684586E-5,-4.5171404E-1,3.188998E-2,9.3940936E-2,-5.0496066E-1,2.8265998E-1,-5.1686503E-3,1.1672511E0,-5.485303E-1,-5.2788705E-1,5.229952E-1,1.1864955E-1,-1.4817342E-1,8.503761E-2,3.2085326E-1,-4.1669437E-1,-9.697321E-1,-1.0146513E0,-2.5004587E-1,-8.681058E-1,5.8811074E-1,5.161696E-1,-3.6105454E-1,-9.979156E-2,3.8383473E-3,-2.883382E-2,5.5232313E-2,-8.0623105E-2,-1.6889414E-2,-6.471964E-2,-6.410987E-3,-7.1151756E-2,-3.6089696E-2,-3.935341E-2,-3.1302075E-4,-6.947787E-2,-2.6584652E-3,1.9317415E-2,4.220344E-2,5.098216E-2,1.6876344E-2,-6.4919326E-3,-3.5462897E-2,-1.4218456E-2,3.1783592E-2],"categories":[],"categories_nodes":[],"categories_segments":[],"categories_sizes":[],"default_left":[0,0,0,0,0,0,0,0,0,0,0,0,0,0,0,0,0,0,0,0,0,0,0,0,0,0,0,0,0,0,0,0,0,0,0,0,0,0,0,0,0,0,0,0,0],"id":0,"left_children":[1,3,5,-1,7,9,11,13,15,17,19,21,23,-1,25,27,29,31,33,35,37,39,41,-1,43,-1,-1,-1,-1,-1,-1,-1,-1,-1,-1,-1,-1,-1,-1,-1,-1,-1,-1,-1,-1],"loss_changes":[2.4008209E2,1.3730498E2,1.4504367E2,0E0,7.896713E1,3.9173322E2,2.40807E2,1.1925953E1,5.7815704E1,6.196733E1,1.4095251E2,1.3901237E3,1.7725352E3,0E0,9.016009E0,7.496315E1,6.791167E1,1.892804E1,3.8513336E1,2.9558903E1,7.6193054E1,3.5819165E2,2.6588196E2,0E0,1.062218E3,0E0,0E0,0E0,0E0,0E0,0E0,0E0,0E0,0E0,0E0,0E0,0E0,0E0,0E0,0E0,0E0,0E0,0E0,0E0,0E0],"parents":[2147483647,0,0,1,1,2,2,4,4,5,5,6,6,7,7,8,8,9,9,10,10,11,11,12,12,14,14,15,15,16,16,17,17,18,18,19,19,20,20,21,21,22,22,24,24],"right_children":[2,4,6,-1,8,10,12,14,16,18,20,22,24,-1,26,28,30,32,34,36,38,40,42,-1,44,-1,-1,-1,-1,-1,-1,-1,-1,-1,-1,-1,-1,-1,-1,-1,-1,-1,-1,-1,-1],"split_conditions":[-7.55395E-1,-8.333334E-1,-9.2139685E-1,9.3940936E-2,-9.9083894E-1,-3.738726E-1,-8.3333336E-2,3.425168E-1,5.4284227E-1,2.1500221E-1,8.3333336E-2,1.4321516E-2,0E0,8.503761E-2,9.166667E-1,-1.2382289E0,3.6175102E-1,-8.397778E-1,-1.2016331E0,1.0445412E0,4.980189E-1,-1.1438245E0,7.164199E-1,-9.979156E-2,3.828735E-1,-2.883382E-2,5.5232313E-2,-8.0623105E-2,-1.6889414E-2,-6.471964E-2,-6.410987E-3,-7.1151756E-2,-3.6089696E-2,-3.935341E-2,-3.1302075E-4,-6.947787E-2,-2.6584652E-3,1.9317415E-2,4.220344E-2,5.098216E-2,1.6876344E-2,-6.4919326E-3,-3.5462897E-2,-1.4218456E-2,3.1783592E-2],"split_indices":[24,25,22,0,22,20,25,17,23,3,25,20,25,0,25,24,20,20,20,20,20,20,20,0,20,0,0,0,0,0,0,0,0,0,0,0,0,0,0,0,0,0,0,0,0],"split_type":[0,0,0,0,0,0,0,0,0,0,0,0,0,0,0,0,0,0,0,0,0,0,0,0,0,0,0,0,0,0,0,0,0,0,0,0,0,0,0,0,0,0,0,0,0],"sum_hessian":[1.6704182E4,1.0978231E3,1.5606359E4,2.3756308E1,1.0740668E3,2.008503E3,1.3597856E4,2.6619371E1,1.0474474E3,4.5906802E2,1.549435E3,7.287913E3,6.309943E3,1.570856E1,1.0910811E1,7.9926666E2,2.4818073E2,1.658518E2,2.9321622E2,6.873244E1,1.4807026E3,3.9853047E3,3.3026086E3,4.7875E2,5.831193E3,5.20955E0,5.7012615E0,4.8273872E1,7.509928E2,1.7869928E2,6.9481445E1,6.765253E1,9.819928E1,9.08528E1,2.0236343E2,4.1483425E1,2.724901E1,8.294146E2,6.5128796E2,1.0424977E3,2.942807E3,1.9855355E3,1.3170731E3,4.00492E3,1.826273E3],"tree_param":{"num_deleted":"0","num_feature":"40","num_nodes":"45","size_leaf_vector":"1"}},{"base_weights":[4.5823916E-3,-4.2797244E-1,3.5175335E-2,8.9822985E-2,-4.8002744E-1,2.5418185E-2,7.324465E-1,-1.5488575E0,-4.2235255E-1,1.278099E-1,-5.584417E-2,1.477442E-1,1.0323164E0,-9.388799E-2,-3.6053294E-1,-2.9998615E-1,-9.408642E-1,2.7184814E-1,-2.976117E-1,-9.182315E-1,5.8472563E-2,-3.9344817E-1,9.614792E-1,1.126691E0,-5.8566183E-2,-8.3978646E-2,5.849877E-2,-8.918258E-3,-5.242297E-2,-1.9880928E-2,-8.10672E-2,2.4250282E-2,5.940487E-3,-9.708051E-3,-3.5914112E-2,-6.773764E-4,-9.5089845E-2,-4.8724497E-3,1.962439E-2,3.5872743E-3,-5.9774127E-2,-3.2468706E-2,6.727807E-2,6.401139E-2,1.0364342E-2],"categories":[],"categories_nodes":[],"categories_segments":[],"categories_sizes":[],"default_left":[0,0,0,0,0,0,0,0,0,0,0,0,0,0,0,0,0,0,0,0,0,0,0,0,0,0,0,0,0,0,0,0,0,0,0,0,0,0,0,0,0,0,0,0,0],"id":1,"left_children":[1,3,5,-1,7,9,11,13,15,17,19,21,23,-1,25,27,29,31,33,35,37,39,41,43,-1,-1,-1,-1,-1,-1,-1,-1,-1,-1,-1,-1,-1,-1,-1,-1,-1,-1,-1,-1,-1],"loss_changes":[2.220612E2,1.2921175E2,1.0660481E2,0E0,6.616142E1,1.2861758E2,3.7762344E1,2.0865417E1,6.505475E1,4.1919046E2,8.496909E2,3.317541E1,3.1011185E1,0E0,2.8584953E1,7.5788025E1,7.186589E1,1.6664099E2,7.516838E1,8.975974E2,3.9639548E2,1.7038164E1,1.9457626E1,1.9132614E1,0E0,0E0,0E0,0E0,0E0,0E0,0E0,0E0,0E0,0E0,0E0,0E0,0E0,0E0,0E0,0E0,0E0,0E0,0E0,0E0,0E0],"parents":[2147483647,0,0,1,1,2,2,4,4,5,5,6,6,7,7,8,8,9,9,10,10,11,11,12,12,14,14,15,15,16,16,17,17,18,18,19,19,20,20,21,21,22,22,23,23],"right_children":[2,4,6,-1,8,10,12,14,16,18,20,22,24,-1,26,28,30,32,34,36,38,40,42,44,-1,-1,-1,-1,-1,-1,-1,-1,-1,-1,-1,-1,-1,-1,-1,-1,-1,-1,-1,-1,-1],"split_conditions":[-7.55395E-1,-8.333334E-1,1.5411689E0,8.9822985E-2,-1.2382289E0,-1.6666667E-1,4.9435127E-1,2.7563834E-1,3.808933E-2,4.974221E-1,0E0,5.334424E-1,1.9166666E0,-9.388799E-2,-1.00120105E-1,5.715935E-1,-1.7859334E-1,-4.8837474E-1,1.796484E0,-8.3333336E-2,3.77374E-1,1E0,6.874448E-1,6.1803395E-1,-5.8566183E-2,-8.3978646E-2,5.849877E-2,-8.918258E-3,-5.242297E-2,-1.9880928E-2,-8.10672E-2,2.4250282E-2,5.940487E-3,-9.708051E-3,-3.5914112E-2,-6.773764E-4,-9.5089845E-2,-4.8724497E-3,1.962439E-2,3.5872743E-3,-5.9774127E-2,-3.2468706E-2,6.727807E-2,6.401139E-2,1.0364342E-2],"split_indices":[24,25,23,0,24,25,26,23,28,12,25,17,25,0,17,26,26,23,12,25,12,25,32,36,0,0,0,0,0,0,0,0,0,0,0,0,0,0,0,0,0,0,0,0,0],"split_type":[0,0,0,0,0,0,0,0,0,0,0,0,0,0,0,0,0,0,0,0,0,0,0,0,0,0,0,0,0,0,0,0,0,0,0,0,0,0,0,0,0,0,0,0,0],"sum_hessian":[1.677857E4,1.1074402E3,1.567113E4,2.4556866E1,1.0828833E3,1.5455887E4,2.1524295E2,5.4117813E1,1.0287655E3,6.8385923E3,8.617295E3,7.347337E1,1.4176958E2,4.1931824E1,1.2185988E1,8.3361475E2,1.9515074E2,5.1091196E3,1.7294727E3,1.0077742E3,7.609521E3,4.4436436E1,2.903694E1,1.3641605E2,5.3535347E0,6.492851E0,5.693137E0,7.18158E2,1.1545671E2,1.093989E2,8.575184E1,2.1342664E3,2.9748533E3,1.3892834E3,3.4018915E2,5.2546497E2,4.823092E2,5.1882866E3,2.4212344E3,2.8700312E1,1.5736126E1,5.4574585E0,2.3579481E1,1.16558754E2,1.985729E1],"tree_param":{"num_deleted":"0","num_feature":"40","num_nodes":"45","size_leaf_vector":"1"}},{"base_weights":[2.8310083E-3,-7.372478E-1,1.8993255E-2,-1.5120693E0,-3.6941764E-1,2.7174753E-1,-1.72173E-2,-1.6113478E0,7.143316E-3,4.2681864E-1,-7.402038E-1,-4.2131293E-1,5.085594E-1,-9.4517075E-2,1.04956195E-1,-1.7034372E0,-1.001527E0,-7.020892E-2,6.883957E-1,-1.0271751E0,8.047417E-1,-9.921496E-1,-2.4531649E-1,2.7365622E-1,7.169108E-1,-7.830297E-2,-8.3976525E-1,4.4890416E-1,-4.3130543E-2,-8.999751E-2,-3.6516882E-2,-8.80862E-2,2.8847327E-2,6.533583E-3,8.5525684E-2,-1.5803955E-2,-7.0978165E-2,-5.370499E-2,6.492868E-2,-7.6666914E-2,-2.7613664E-2,-2.9761374E-2,5.5890298E-3,-3.5218734E-2,1.9423276E-2,2.3488367E-2,4.9330078E-2,-2.863213E-3,-2.9376078E-2,-6.9075115E-2,3.0873162E-3,3.2443494E-2,-2.6601257E-3,1.8730411E-2,-6.0579428E-3],"categories":[],"categories_nodes":[],"categories_segments":[],"categories_sizes":[],"default_left":[0,0,0,0,0,0,0,0,0,0,0,0,0,0,0,0,0,0,0,0,0,0,0,0,0,0,0,0,0,0,0,0,0,0,0,0,0,0,0,0,0,0,0,0,0,0,0,0,0,0,0,0,0,0,0],"id":2,"left_children":[1,3,5,7,9,11,13,15,-1,17,19,21,23,25,27,29,31,-1,33,35,37,39,41,43,45,47,49,51,53,-1,-1,-1,-1,-1,-1,-1,-1,-1,-1,-1,-1,-1,-1,-1,-1,-1,-1,-1,-1,-1,-1,-1,-1,-1,-1],"loss_changes":[2.0019032E2,1.0138362E2,1.4990764E2,1.9095032E1,7.231406E1,3.3707776E2,1.3531491E2,4.3816833E0,0E0,3.83801E1,7.47571E1,5.2325584E1,7.469684E1,1.05974495E2,2.8283148E2,7.396576E0,2.0994616E1,0E0,3.912341E1,3.891339E1,2.6151773E1,2.842939E1,5.0206734E1,8.122125E1,5.354669E1,9.1991974E1,9.129526E1,1.6783145E2,1.2659046E2,0E0,0E0,0E0,0E0,0E0,0E0,0E0,0E0,0E0,0E0,0E0,0E0,0E0,0E0,0E0,0E0,0E0,0E0,0E0,0E0,0E0,0E0,0E0,0E0,0E0,0E0],"parents":[2147483647,0,0,1,1,2,2,3,3,4,4,5,5,6,6,7,7,9,9,10,10,11,11,12,12,13,13,14,14,15,15,16,16,18,18,19,19,20,20,21,21,22,22,23,23,24,24,25,25,26,26,27,27,28,28],"right_children":[2,4,6,8,10,12,14,16,-1,18,20,22,24,26,28,30,32,-1,34,36,38,40,42,44,46,48,50,52,54,-1,-1,-1,-1,-1,-1,-1,-1,-1,-1,-1,-1,-1,-1,-1,-1,-1,-1,-1,-1,-1,-1,-1,-1,-1,-1],"split_conditions":[-1.0282716E0,-5.454716E-1,-9.2139685E-1,-4.1157078E-2,-4.2481035E-1,-3.0971584E-1,5.335294E-1,-5.6427985E-1,7.143316E-3,-4.5908684E-1,7.0136845E-1,-1.2016331E0,4.0213788E-1,6.1378E-1,-5.201146E-1,7.930164E-1,-1.2438955E-1,-7.020892E-2,-1.2050746E-1,0E0,-1.0934511E-1,8.32435E-1,3.9261395E-1,-1.9640276E-2,-5.406486E-1,8.120215E-1,6.3204086E-1,-7.355155E-2,1.3878961E-1,-8.999751E-2,-3.6516882E-2,-8.80862E-2,2.8847327E-2,6.533583E-3,8.5525684E-2,-1.5803955E-2,-7.0978165E-2,-5.370499E-2,6.492868E-2,-7.6666914E-2,-2.7613664E-2,-2.9761374E-2,5.5890298E-3,-3.5218734E-2,1.9423276E-2,2.3488367E-2,4.9330078E-2,-2.863213E-3,-2.9376078E-2,-6.9075115E-2,3.0873162E-3,3.2443494E-2,-2.6601257E-3,1.8730411E-2,-6.0579428E-3],"split_indices":[24,28,22,22,28,20,27,28,0,15,16,20,20,17,20,16,14,0,27,35,22,3,2,26,3,28,17,26,22,0,0,0,0,0,0,0,0,0,0,0,0,0,0,0,0,0,0,0,0,0,0,0,0,0,0],"split_type":[0,0,0,0,0,0,0,0,0,0,0,0,0,0,0,0,0,0,0,0,0,0,0,0,0,0,0,0,0,0,0,0,0,0,0,0,0,0,0,0,0,0,0,0,0,0,0,0,0,0,0,0,0,0,0],"sum_hessian":[1.673428E4,3.5668848E2,1.6377592E4,1.1381994E2,2.4286853E2,2.0514822E3,1.4326109E4,1.0740324E2,6.4167056E0,7.711613E1,1.657524E2,5.222554E2,1.5292268E3,8.774602E3,5.551508E3,9.175406E1,1.5649173E1,9.093684E0,6.8022446E1,1.400698E2,2.568261E1,1.21980316E2,4.0027505E2,7.1989905E2,8.093277E2,8.588843E3,1.8575937E2,1.6702153E3,3.8812925E3,8.27019E1,9.052165E0,1.0483972E1,5.1652017E0,4.4738495E1,2.3283949E1,5.0449482E1,8.962031E1,5.100839E0,2.058177E1,5.3577274E1,6.8403046E1,2.0183493E2,1.9844012E2,7.5090164E1,6.448089E2,4.2374835E2,3.8557935E2,8.249137E3,3.3970624E2,1.1570025E2,7.005911E1,1.194292E3,4.7592325E2,6.102748E2,3.2710176E3],"tree_param":{"num_deleted":"0","num_feature":"40","num_nodes":"55","size_leaf_vector":"1"}},{"base_weights":[1.4190641E-3,2.8777325E-1,-3.363424E-2,-4.5187587E-1,5.293888E-1,9.122281E-2,-1.6652687E-1,-8.960587E-1,-1.7446035E-1,-8.804845E-1,5.886748E-1,5.763968E-1,-2.398887E-1,-9.1372415E-2,-2.590486E-2,-1.3016701E0,-5.152986E-1,-6.6485536E-1,3.906664E-2,-1.6948556E0,-2.1421854E-1,4.5482203E-1,9.2979693E-1,1.1350561E0,4.4170496E-1,-6.795431E-2,-6.6051847E-1,-2.782986E-1,5.806388E-1,8.300739E-3,-7.062789E-2,-5.4022264E-2,-1.0281115E-2,-6.6895835E-2,-2.1051018E-2,-1.3510721E-2,1.35977855E-2,-9.343708E-2,-5.4704066E-2,-3.6553424E-2,4.1642275E-2,1.6996412E-2,4.7830824E-2,5.2949328E-2,-2.3805605E-2,7.962935E-2,4.247729E-2,3.6877345E-2,1.3813287E-2,1.2495428E-3,-2.47761E-2,-2.2594968E-2,-5.9167605E-2,-3.8658965E-2,-7.3979087E-3,1.9438196E-2,5.7309944E-2],"categories":[],"categories_nodes":[],"categories_segments":[],"categories_sizes":[],"default_left":[0,0,0,0,0,0,0,0,0,0,0,0,0,0,0,0,0,0,0,0,0,0,0,0,0,0,0,0,0,0,0,0,0,0,0,0,0,0,0,0,0,0,0,0,0,0,0,0,0,0,0,0,0,0,0,0,0],"id":3,"left_children":[1,3,5,7,9,11,13,15,17,19,21,23,25,-1,27,29,31,33,35,37,39,41,43,45,47,49,51,53,55,-1,-1,-1,-1,-1,-1,-1,-1,-1,-1,-1,-1,-1,-1,-1,-1,-1,-1,-1,-1,-1,-1,-1,-1,-1,-1,-1,-1],"loss_changes":[1.6793341E2,3.2632208E2,2.4733968E2,5.5271744E1,1.15517456E2,1.2348462E3,1.6864738E3,2.599945E1,2.9149618E1,2.9978546E1,5.988968E1,2.3411267E2,3.303838E2,0E0,1.0194581E3,1.3736206E1,1.5656469E1,1.3291859E1,1.4097832E1,5.69046E-1,1.78732E1,5.4480743E1,6.794049E1,7.7685486E1,1.22834564E2,1.2894432E2,1.4405005E2,3.032066E2,2.1190125E2,0E0,0E0,0E0,0E0,0E0,0E0,0E0,0E0,0E0,0E0,0E0,0E0,0E0,0E0,0E0,0E0,0E0,0E0,0E0,0E0,0E0,0E0,0E0,0E0,0E0,0E0,0E0,0E0],"parents":[2147483647,0,0,1,1,2,2,3,3,4,4,5,5,6,6,7,7,8,8,9,9,10,10,11,11,12,12,14,14,15,15,16,16,17,17,18,18,19,19,20,20,21,21,22,22,23,23,24,24,25,25,26,26,27,27,28,28],"right_children":[2,4,6,8,10,12,14,16,18,20,22,24,26,-1,28,30,32,34,36,38,40,42,44,46,48,50,52,54,56,-1,-1,-1,-1,-1,-1,-1,-1,-1,-1,-1,-1,-1,-1,-1,-1,-1,-1,-1,-1,-1,-1,-1,-1,-1,-1,-1,-1],"split_conditions":[-9.716709E-1,-3.2741266E-1,-8.3333336E-2,2.2296314E-1,8.3333336E-2,-2.600957E-1,0E0,-6.701837E-1,-1.2016331E0,9.150309E-1,-6.269413E-1,-1.635497E0,7.164199E-1,-9.1372415E-2,3.828735E-1,8.3333336E-2,6.666667E-1,8.32435E-1,-9.559106E-1,-2.2398004E-1,4.155494E-1,2.457658E-1,-7.291582E-1,8.9147097E-1,1.1994113E-1,4.301988E-1,-1.9030933E-1,-8.397778E-1,1.3118389E0,8.300739E-3,-7.062789E-2,-5.4022264E-2,-1.0281115E-2,-6.6895835E-2,-2.1051018E-2,-1.3510721E-2,1.35977855E-2,-9.343708E-2,-5.4704066E-2,-3.6553424E-2,4.1642275E-2,1.6996412E-2,4.7830824E-2,5.2949328E-2,-2.3805605E-2,7.962935E-2,4.247729E-2,3.6877345E-2,1.3813287E-2,1.2495428E-3,-2.47761E-2,-2.2594968E-2,-5.9167605E-2,-3.8658965E-2,-7.3979087E-3,1.9438196E-2,5.7309944E-2],"split_indices":[22,20,25,3,25,20,25,20,20,23,15,20,20,0,20,25,25,3,15,27,34,3,27,3,3,3,3,20,20,0,0,0,0,0,0,0,0,0,0,0,0,0,0,0,0,0,0,0,0,0,0,0,0,0,0,0,0],"split_type":[0,0,0,0,0,0,0,0,0,0,0,0,0,0,0,0,0,0,0,0,0,0,0,0,0,0,0,0,0,0,0,0,0,0,0,0,0,0,0,0,0,0,0,0,0,0,0,0,0,0,0,0,0,0,0,0,0],"sum_hessian":[1.6728367E4,1.823641E3,1.4904728E4,4.4881845E2,1.3748225E3,7.6848594E3,7.2198677E3,1.7168909E2,2.7712936E2,5.4920204E1,1.3199023E3,3.1169243E3,4.567935E3,5.6262067E2,6.657247E3,8.1960556E1,8.972854E1,8.342298E1,1.9370639E2,2.4018631E1,3.0901573E1,9.496162E2,3.7028607E2,6.040574E2,2.512867E3,3.2433586E3,1.3245765E3,4.701436E3,1.9558108E3,5.7224474E0,7.6238106E1,3.0881716E1,5.884682E1,2.0991861E1,6.243112E1,8.3137695E1,1.1056869E2,1.6990423E1,7.028207E0,2.0891127E1,1.0010448E1,7.740603E2,1.7555591E2,3.3934982E2,3.0936247E1,2.3034737E2,3.7371002E2,9.0000336E2,1.6128635E3,2.6649832E3,5.783756E2,9.4812396E2,3.7645255E2,9.790844E2,3.7223518E3,1.4616208E3,4.9418994E2],"tree_param":{"num_deleted":"0","num_feature":"40","num_nodes":"57","size_leaf_vector":"1"}},{"base_weights":[-1.5236628E-3,-2.2636668E-1,4.7237895E-2,6.941287E-1,-2.9020026E-1,3.759097E-2,6.7745346E-1,1.1311347E0,1.1148873E-2,-5.1219237E-1,-1.5509325E-1,1.1790117E-1,-2.9515876E-2,-3.5102627E-1,8.2152325E-1,1.4423844E-1,1.3839049E0,-9.7980356E-1,2.1921402E-1,-2.7970004E-1,-8.8523455E-2,-1.15914665E-1,-1.4753623E0,4.1987032E-1,-3.946907E-1,-2.871158E-1,4.12257E-1,5.8357436E-2,-8.7207747E-1,9.7788304E-1,-1.3140495E-1,3.104181E-2,-6.120516E-2,2.5008867E-2,8.585184E-2,1.1202519E-2,-8.859629E-2,-1.9038763E-2,2.9421588E-2,6.8869703E-3,-2.9481E-2,-8.727673E-3,7.7680886E-2,6.016961E-3,-8.564307E-2,4.2444836E-2,1.1604968E-2,-1.1123086E-2,-4.3748744E-2,-3.1920027E-2,-5.0362716E-3,-5.0600596E-2,2.9500648E-2,-8.059072E-2,-1.4317939E-2,5.5033207E-2,1.1307468E-3,5.7685234E-2,-2.5804395E-2],"categories":[],"categories_nodes":[],"categories_segments":[],"categories_sizes":[],"default_left":[0,0,0,0,0,0,0,0,0,0,0,0,0,0,0,0,0,0,0,0,0,0,0,0,0,0,0,0,0,0,0,0,0,0,0,0,0,0,0,0,0,0,0,0,0,0,0,0,0,0,0,0,0,0,0,0,0,0,0],"id":4,"left_children":[1,3,5,7,9,11,13,15,17,19,21,23,25,27,29,31,33,35,37,39,-1,41,43,45,47,49,51,-1,53,55,57,-1,-1,-1,-1,-1,-1,-1,-1,-1,-1,-1,-1,-1,-1,-1,-1,-1,-1,-1,-1,-1,-1,-1,-1,-1,-1,-1,-1],"loss_changes":[1.836842E2,1.7564592E2,8.3679214E1,5.7868095E1,8.368805E1,7.30914E1,3.1036568E1,2.9298538E1,1.6024494E1,3.0850253E2,8.9712166E1,9.5576447E2,8.4097687E2,2.1741566E1,2.7293793E1,1.7212063E1,2.6820923E1,1.3259877E1,1.4443726E1,1.1557469E2,0E0,1.6559154E2,1.9152527E1,3.1281134E2,1.8916278E2,3.0557275E2,6.8972034E2,0E0,8.237044E0,1.8358704E1,1.3735578E1,0E0,0E0,0E0,0E0,0E0,0E0,0E0,0E0,0E0,0E0,0E0,0E0,0E0,0E0,0E0,0E0,0E0,0E0,0E0,0E0,0E0,0E0,0E0,0E0,0E0,0E0,0E0,0E0],"parents":[2147483647,0,0,1,1,2,2,3,3,4,4,5,5,6,6,7,7,8,8,9,9,10,10,11,11,12,12,13,13,14,14,15,15,16,16,17,17,18,18,19,19,21,21,22,22,23,23,24,24,25,25,26,26,28,28,29,29,30,30],"right_children":[2,4,6,8,10,12,14,16,18,20,22,24,26,28,30,32,34,36,38,40,-1,42,44,46,48,50,52,-1,54,56,58,-1,-1,-1,-1,-1,-1,-1,-1,-1,-1,-1,-1,-1,-1,-1,-1,-1,-1,-1,-1,-1,-1,-1,-1,-1,-1,-1,-1],"split_conditions":[-4.6599516E-1,-8.333334E-1,1.5411689E0,-5.6195074E-1,0E0,-1.6666667E-1,-1.9965489E-1,-5.2858096E-1,-5.868816E-1,-8.3333336E-2,5.8918816E-1,2.0358501E-1,3.2639956E-1,-5E-1,1.4798473E0,-5.4621583E-1,-5.013099E-1,-3.4199464E-1,-2.9305753E-1,-1.1185453E-1,-8.8523455E-2,5.5980766E-1,-5.8781785E-1,-9.616721E-1,1.2049054E0,-6.4153653E-1,0E0,5.8357436E-2,1.6117013E0,6.1803395E-1,-5.661432E-1,3.104181E-2,-6.120516E-2,2.5008867E-2,8.585184E-2,1.1202519E-2,-8.859629E-2,-1.9038763E-2,2.9421588E-2,6.8869703E-3,-2.9481E-2,-8.727673E-3,7.7680886E-2,6.016961E-3,-8.564307E-2,4.2444836E-2,1.1604968E-2,-1.1123086E-2,-4.3748744E-2,-3.1920027E-2,-5.0362716E-3,-5.0600596E-2,2.9500648E-2,-8.059072E-2,-1.4317939E-2,5.5033207E-2,1.1307468E-3,5.7685234E-2,-2.5804395E-2],"split_indices":[24,25,23,24,25,25,20,17,19,25,17,20,20,35,18,17,26,32,17,20,0,17,14,20,20,20,25,0,23,36,17,0,0,0,0,0,0,0,0,0,0,0,0,0,0,0,0,0,0,0,0,0,0,0,0,0,0,0,0],"split_type":[0,0,0,0,0,0,0,0,0,0,0,0,0,0,0,0,0,0,0,0,0,0,0,0,0,0,0,0,0,0,0,0,0,0,0,0,0,0,0,0,0,0,0,0,0,0,0,0,0,0,0,0,0,0,0,0,0,0,0],"sum_hessian":[1.6751883E4,2.9848562E3,1.3767027E4,1.9292712E2,2.7919292E3,1.3560512E4,2.065157E2,1.1724897E2,7.567816E1,1.0552592E3,1.73667E3,6.17264E3,7.3878716E3,2.5197842E1,1.8131786E2,2.4227524E1,9.302145E1,1.2488766E1,6.31894E1,8.917182E2,1.6354088E2,1.6876765E3,4.8993484E1,3.88447E3,2.28817E3,4.6669185E3,2.7209531E3,6.1215706E0,1.9076271E1,1.557377E2,2.5580168E1,1.8374065E1,5.85346E0,2.6150696E1,6.687074E1,5.2408943E0,7.247871E0,2.4059969E1,3.912943E1,3.8018817E2,5.1153003E2,1.6312769E3,5.63997E1,6.4112267E0,4.2582256E1,1.1814733E3,2.7029966E3,1.685291E3,6.0287897E2,1.6169927E3,3.0499255E3,3.0138828E2,2.419565E3,7.655656E0,1.1420615E1,1.3786555E2,1.7872139E1,5.4325504E0,2.0147617E1],"tree_param":{"num_deleted":"0","num_feature":"40","num_nodes":"59","size_leaf_vector":"1"}},{"base_weights":[-9.256481E-3,-4.355575E-1,1.908542E-2,8.218972E-2,-4.8134172E-1,2.1963379E-1,-1.0536033E-2,-1.0387527E-2,-5.9638715E-1,-4.2914417E-1,3.950973E-1,9.714459E-2,-1.3442695E-1,-8.3555365E-1,7.583322E-1,-1.46854E0,-5.146204E-1,-9.49993E-1,-2.037159E-1,-7.5331587E-1,4.5466027E-1,5.347506E-1,-2.0833504E-1,-8.58816E-2,-5.715063E-3,8.3509974E-2,-5.3400148E-2,-7.464831E-3,5.481365E-2,-8.214923E-2,-3.8236856E-2,6.322884E-2,-2.802813E-2,-5.3786654E-2,-3.2185018E-3,-3.7279665E-2,2.256153E-3,-5.8356684E-2,9.878542E-3,1.5635919E-2,3.8786884E-2,5.209717E-2,2.0479225E-2,-1.2504483E-3,-2.7612567E-2,-1.3044858E-2,2.7537053E-2],"categories":[],"categories_nodes":[],"categories_segments":[],"categories_sizes":[],"default_left":[0,0,0,0,0,0,0,0,0,0,0,0,0,0,0,0,0,0,0,0,0,0,0,0,0,0,0,0,0,0,0,0,0,0,0,0,0,0,0,0,0,0,0,0,0,0,0],"id":5,"left_children":[1,3,5,-1,7,9,11,13,15,17,19,21,23,25,27,29,31,33,35,37,39,41,43,-1,45,-1,-1,-1,-1,-1,-1,-1,-1,-1,-1,-1,-1,-1,-1,-1,-1,-1,-1,-1,-1,-1,-1],"loss_changes":[2.0173932E2,9.988507E1,9.3011375E1,0E0,5.5217117E1,2.295469E2,1.8201576E2,1.282067E2,5.765802E1,5.0226723E1,1.0886664E2,9.758988E2,1.2928093E3,5.8558075E1,3.2260605E1,7.2975464E0,6.2050415E1,1.4345306E1,4.061782E1,3.1161472E1,6.8526245E1,1.9009015E2,2.7105765E2,0E0,8.334254E2,0E0,0E0,0E0,0E0,0E0,0E0,0E0,0E0,0E0,0E0,0E0,0E0,0E0,0E0,0E0,0E0,0E0,0E0,0E0,0E0,0E0,0E0],"parents":[2147483647,0,0,1,1,2,2,4,4,5,5,6,6,7,7,8,8,9,9,10,10,11,11,12,12,13,13,14,14,15,15,16,16,17,17,18,18,19,19,20,20,21,21,22,22,24,24],"right_children":[2,4,6,-1,8,10,12,14,16,18,20,22,24,26,28,30,32,34,36,38,40,42,44,-1,46,-1,-1,-1,-1,-1,-1,-1,-1,-1,-1,-1,-1,-1,-1,-1,-1,-1,-1,-1,-1,-1,-1],"split_conditions":[-7.748085E-1,-8.333334E-1,-9.2139685E-1,8.218972E-2,-5.8145595E-1,-4.0678895E-1,-8.3333336E-2,-7.7048576E-1,-4.3448502E-1,9.955659E-2,8.3333336E-2,-2.600957E-1,0E0,-9.027136E-1,-4.342725E-1,5.436182E-1,-5.552474E-1,6.787989E-1,-1.2016331E0,1.4745802E0,-6.501485E-1,-1.635497E0,6.2198126E-1,-8.58816E-2,3.828735E-1,8.3509974E-2,-5.3400148E-2,-7.464831E-3,5.481365E-2,-8.214923E-2,-3.8236856E-2,6.322884E-2,-2.802813E-2,-5.3786654E-2,-3.2185018E-3,-3.7279665E-2,2.256153E-3,-5.8356684E-2,9.878542E-3,1.5635919E-2,3.8786884E-2,5.209717E-2,2.0479225E-2,-1.2504483E-3,-2.7612567E-2,-1.3044858E-2,2.7537053E-2],"split_indices":[24,25,22,0,27,20,25,28,22,3,25,20,25,28,15,17,27,7,20,20,15,20,20,0,20,0,0,0,0,0,0,0,0,0,0,0,0,0,0,0,0,0,0,0,0,0,0],"split_type":[0,0,0,0,0,0,0,0,0,0,0,0,0,0,0,0,0,0,0,0,0,0,0,0,0,0,0,0,0,0,0,0,0,0,0,0,0,0,0,0,0,0,0,0,0,0,0],"sum_hessian":[1.6695568E4,1.0398862E3,1.5655683E4,2.1651478E1,1.0182348E3,2.0139655E3,1.3641717E4,2.0011734E2,8.1811743E2,4.2842273E2,1.5855427E3,7.2984424E3,6.3432744E3,9.647323E1,1.0364411E2,6.867247E1,7.49445E2,1.2844295E2,2.9997977E2,7.760574E1,1.507937E3,3.000053E3,4.298389E3,4.7599615E2,5.8672783E3,7.664656E0,8.880857E1,2.8271572E1,7.537254E1,5.3962803E1,1.470967E1,1.8197254E1,7.3124774E2,1.12286E2,1.6156939E1,9.3775604E1,2.0620418E2,5.391498E1,2.3690762E1,1.0470369E3,4.609001E2,5.923662E2,2.4076868E3,2.8045073E3,1.4938821E3,4.022948E3,1.8443302E3],"tree_param":{"num_deleted":"0","num_feature":"40","num_nodes":"47","size_leaf_vector":"1"}},{"base_weights":[3.1253572E-3,-6.624145E-1,1.7498476E-2,-1.380533E0,-2.9102144E-1,8.94394E-3,6.37443E-1,-1.5536499E0,3.1604778E-2,6.915385E-1,-6.833617E-1,8.381974E-2,-5.696333E-2,-2.1884517E-1,8.1079495E-1,-1.6195471E0,-8.7755007E-1,-1.0855337E0,1.1288197E0,-1.109765E-1,-1.4677852E0,5.0026596E-1,-2.049626E-1,-8.339488E-2,4.6748247E-2,-6.3426904E-2,1.008736E-1,8.8419825E-1,-7.292324E-2,-3.847782E-2,-8.293783E-2,-3.475674E-3,-7.807817E-2,-1.2908071E-2,-8.0904014E-2,3.567549E-2,8.7782554E-2,3.4476142E-2,-3.5571348E-2,-8.363855E-2,4.9460925E-2,5.0163038E-2,1.8986514E-2,-5.215711E-3,-4.0377557E-2,-9.36514E-3,2.72198E-2,3.8245235E-2,-4.8357364E-2,-1.6143171E-2,5.0431486E-2],"categories":[],"categories_nodes":[],"categories_segments":[],"categories_sizes":[],"default_left":[0,0,0,0,0,0,0,0,0,0,0,0,0,0,0,0,0,0,0,0,0,0,0,0,0,0,0,0,0,0,0,0,0,0,0,0,0,0,0,0,0,0,0,0,0,0,0,0,0,0,0],"id":6,"left_children":[1,3,5,7,9,11,13,15,-1,17,19,21,23,25,27,29,31,33,35,37,39,41,43,-1,45,-1,47,49,-1,-1,-1,-1,-1,-1,-1,-1,-1,-1,-1,-1,-1,-1,-1,-1,-1,-1,-1,-1,-1,-1,-1],"loss_changes":[1.594117E2,9.355388E1,8.650295E1,4.27296E1,9.0472626E1,7.94121E1,3.3132553E1,3.5071716E0,0E0,5.338163E1,7.4974304E1,9.0608856E2,1.4299991E3,1.2936579E1,3.2079483E1,2.0433044E0,6.52771E0,5.6468906E0,1.2897331E1,4.7514065E1,3.7169724E1,1.8666687E2,2.69763E2,0E0,9.3679126E2,0E0,2.2144352E1,2.7312347E1,0E0,0E0,0E0,0E0,0E0,0E0,0E0,0E0,0E0,0E0,0E0,0E0,0E0,0E0,0E0,0E0,0E0,0E0,0E0,0E0,0E0,0E0,0E0],"parents":[2147483647,0,0,1,1,2,2,3,3,4,4,5,5,6,6,7,7,9,9,10,10,11,11,12,12,13,13,14,14,15,15,16,16,17,17,18,18,19,19,20,20,21,21,22,22,24,24,26,26,27,27],"right_children":[2,4,6,8,10,12,14,16,-1,18,20,22,24,26,28,30,32,34,36,38,40,42,44,-1,46,-1,48,50,-1,-1,-1,-1,-1,-1,-1,-1,-1,-1,-1,-1,-1,-1,-1,-1,-1,-1,-1,-1,-1,-1,-1],"split_conditions":[-1.0282716E0,-5.2610135E-1,1.5411689E0,2.2420238E-1,-4.2481035E-1,-8.3333336E-2,-2.9521687E0,3.6175102E-1,3.1604778E-2,-4.258556E-1,1.6338435E-1,-2.600957E-1,0E0,1.1392107E0,1.9166666E0,-1.6666667E-1,-3.3638674E-1,-5.8781785E-1,-1.2050746E-1,-8.3333336E-2,4.418142E-1,-1.635497E0,1.2049054E0,-8.339488E-2,3.828735E-1,-6.3426904E-2,2.6128662E0,-2.1630313E-1,-7.292324E-2,-3.847782E-2,-8.293783E-2,-3.475674E-3,-7.807817E-2,-1.2908071E-2,-8.0904014E-2,3.567549E-2,8.7782554E-2,3.4476142E-2,-3.5571348E-2,-8.363855E-2,4.9460925E-2,5.0163038E-2,1.8986514E-2,-5.215711E-3,-4.0377557E-2,-9.36514E-3,2.72198E-2,3.8245235E-2,-4.8357364E-2,-1.6143171E-2,5.0431486E-2],"split_indices":[24,28,23,15,28,25,15,20,0,15,15,20,25,24,25,25,21,14,27,25,14,20,20,0,20,0,24,20,0,0,0,0,0,0,0,0,0,0,0,0,0,0,0,0,0,0,0,0,0,0,0],"split_type":[0,0,0,0,0,0,0,0,0,0,0,0,0,0,0,0,0,0,0,0,0,0,0,0,0,0,0,0,0,0,0,0,0,0,0,0,0,0,0,0,0,0,0,0,0,0,0,0,0,0,0],"sum_hessian":[1.6662396E4,3.5128406E2,1.6311112E4,1.1881958E2,2.3246448E2,1.6090102E4,2.2101088E2,1.0961874E2,9.200842E0,6.611823E1,1.6634624E2,7.532417E3,8.557685E3,3.716558E1,1.838453E2,9.861193E1,1.1006809E1,1.2764002E1,5.3354233E1,9.6831116E1,6.951512E1,3.0841313E3,4.4482856E3,5.1670544E2,8.0409795E3,7.9842415E0,2.9181337E1,1.7867606E2,5.169243E0,5.257836E0,9.3354095E1,5.550975E0,5.455834E0,5.5798426E0,7.1841593E0,3.3377857E1,1.9976376E1,4.1438465E1,5.5392647E1,6.445673E1,5.0583878E0,5.947826E2,2.4893489E3,3.812645E3,6.356405E2,5.469307E3,2.571672E3,1.816885E1,1.1012487E1,1.6548706E1,1.6212735E2],"tree_param":{"num_deleted":"0","num_feature":"40","num_nodes":"51","size_leaf_vector":"1"}},{"base_weights":[-1.4370641E-3,-7.188377E-1,1.1196963E-2,-1.5210463E0,-3.4625968E-1,2.2963317E-1,-1.6172849E-2,-8.697365E-3,-1.5991427E0,1.5907331E-1,-1.0558981E0,-3.4814864E-1,4.1491428E-1,2.2497999E-2,-3.3817184E-1,-8.625546E-2,-8.907775E-1,1.3697797E0,-4.225585E-1,-1.5595942E0,9.1077507E-1,-7.0533854E-1,-1.3246901E-1,-4.515161E-1,4.7777918E-1,2.3964393E-1,-1.9365946E-2,-4.550798E-1,6.9718707E-1,-7.913624E-2,1.376016E-2,9.4780855E-2,-7.156366E-3,3.5873994E-2,-5.799068E-2,-1.9080572E-2,-8.339979E-2,8.98322E-2,-4.2427402E-2,-5.374018E-2,-1.9047111E-2,-2.168392E-2,8.756343E-3,-4.025988E-2,8.854853E-3,1.4080243E-2,3.5547692E-2,3.6149345E-2,-3.405245E-2,-8.15727E-3,1.0144049E-2,-6.258191E-2,-1.80585E-2,2.7655214E-2,6.771328E-2],"categories":[],"categories_nodes":[],"categories_segments":[],"categories_sizes":[],"default_left":[0,0,0,0,0,0,0,0,0,0,0,0,0,0,0,0,0,0,0,0,0,0,0,0,0,0,0,0,0,0,0,0,0,0,0,0,0,0,0,0,0,0,0,0,0,0,0,0,0,0,0,0,0,0,0],"id":7,"left_children":[1,3,5,7,9,11,13,-1,15,17,19,21,23,25,27,-1,29,31,33,35,37,39,41,43,45,47,49,51,53,-1,-1,-1,-1,-1,-1,-1,-1,-1,-1,-1,-1,-1,-1,-1,-1,-1,-1,-1,-1,-1,-1,-1,-1,-1,-1],"loss_changes":[1.5082126E2,8.554529E1,9.776721E1,9.299133E0,7.115033E1,1.9507068E2,1.809659E2,0E0,6.130432E0,8.260378E1,8.310468E1,3.4009212E1,7.5337204E1,1.1795742E2,1.889281E2,0E0,1.2570245E1,3.0530106E1,6.760705E1,7.793228E0,2.8711964E1,1.9537651E1,2.576247E1,2.099996E1,5.864215E1,9.3380225E2,3.476663E2,1.0432971E2,1.4255936E1,0E0,0E0,0E0,0E0,0E0,0E0,0E0,0E0,0E0,0E0,0E0,0E0,0E0,0E0,0E0,0E0,0E0,0E0,0E0,0E0,0E0,0E0,0E0,0E0,0E0,0E0],"parents":[2147483647,0,0,1,1,2,2,3,3,4,4,5,5,6,6,8,8,9,9,10,10,11,11,12,12,13,13,14,14,16,16,17,17,18,18,19,19,20,20,21,21,22,22,23,23,24,24,25,25,26,26,27,27,28,28],"right_children":[2,4,6,8,10,12,14,-1,16,18,20,22,24,26,28,-1,30,32,34,36,38,40,42,44,46,48,50,52,54,-1,-1,-1,-1,-1,-1,-1,-1,-1,-1,-1,-1,-1,-1,-1,-1,-1,-1,-1,-1,-1,-1,-1,-1,-1,-1],"split_conditions":[-1.0604938E0,-5.454716E-1,-9.716709E-1,-1.6666667E-1,9.745587E-2,-3.2741266E-1,7.5E-1,-8.697365E-3,-5.6427985E-1,-8.3333336E-2,0E0,2.2296314E-1,1.6666666E-1,-9.148398E-1,9.576653E-1,-8.625546E-2,-1.8606399E-1,3.5623215E-2,0E0,-1.6988342E-1,4.3506283E-1,-6.701837E-1,-8.563678E-1,1.118644E0,-2.1347757E-1,-8.3333336E-2,0E0,-1.2231901E0,2.0294125E0,-7.913624E-2,1.376016E-2,9.4780855E-2,-7.156366E-3,3.5873994E-2,-5.799068E-2,-1.9080572E-2,-8.339979E-2,8.98322E-2,-4.2427402E-2,-5.374018E-2,-1.9047111E-2,-2.168392E-2,8.756343E-3,-4.025988E-2,8.854853E-3,1.4080243E-2,3.5547692E-2,3.6149345E-2,-3.405245E-2,-8.15727E-3,1.0144049E-2,-6.258191E-2,-1.80585E-2,2.7655214E-2,6.771328E-2],"split_indices":[24,28,22,25,21,20,25,0,28,25,25,3,25,20,20,0,14,27,35,14,13,20,20,20,3,25,25,20,20,0,0,0,0,0,0,0,0,0,0,0,0,0,0,0,0,0,0,0,0,0,0,0,0,0,0],"split_type":[0,0,0,0,0,0,0,0,0,0,0,0,0,0,0,0,0,0,0,0,0,0,0,0,0,0,0,0,0,0,0,0,0,0,0,0,0,0,0,0,0,0,0,0,0,0,0,0,0,0,0,0,0,0,0],"sum_hessian":[1.663833E4,2.8697665E2,1.6351353E4,9.003569E1,1.9694098E2,1.8198545E3,1.4531498E4,5.11053E0,8.4925156E1,1.1548209E2,8.145888E1,4.4166974E2,1.3781848E3,1.2974269E4,1.55723E3,7.0884605E1,1.4040555E1,3.7035374E1,7.8446724E1,6.5014595E1,1.6444279E1,1.6542949E2,2.7624026E2,9.281311E1,1.2853717E3,2.0962764E3,1.0877992E4,1.3997384E3,1.5749156E2,8.587132E0,5.453422E0,2.7295408E1,9.739964E0,3.0818316E1,4.7628407E1,5.859598E0,5.9155E1,1.0923018E1,5.521261E0,7.626063E1,8.916885E1,1.3936194E2,1.3687833E2,5.921539E1,3.3597725E1,6.992701E2,5.861016E2,1.3747687E3,7.215077E2,6.605151E3,4.2728413E3,1.4631795E2,1.2534204E3,1.3067844E2,2.6813128E1],"tree_param":{"num_deleted":"0","num_feature":"40","num_nodes":"55","size_leaf_vector":"1"}},{"base_weights":[6.802681E-3,-3.235301E-1,3.0151984E-2,8.048249E-2,-3.695067E-1,2.134601E-1,3.2015375E-3,1.1001728E0,-3.9995867E-1,-5.3040653E-1,3.471697E-1,3.958359E-2,-3.2913312E-1,8.3831474E-2,5.0784737E-1,-1.3568951E0,-3.2858294E-1,-9.955656E-1,-3.2407352E-1,-1.0257199E0,3.8022804E-1,2.3573181E-1,-1.1147847E-4,-5.440714E-1,2.4206409E-1,-1.7147668E-2,5.8029946E-2,-7.530958E-2,-3.5403445E-3,1.1478542E-2,-2.1875117E-2,3.225152E-2,-5.495132E-2,6.5504196E-3,-2.720714E-2,-2.715961E-3,-6.914894E-2,1.360664E-2,4.4486657E-2,3.444236E-2,-3.2823008E-2,-6.548165E-3,1.0618419E-2,-6.074009E-2,-2.142616E-2,-3.7326407E-2,2.2281833E-2],"categories":[],"categories_nodes":[],"categories_segments":[],"categories_sizes":[],"default_left":[0,0,0,0,0,0,0,0,0,0,0,0,0,0,0,0,0,0,0,0,0,0,0,0,0,0,0,0,0,0,0,0,0,0,0,0,0,0,0,0,0,0,0,0,0,0,0],"id":8,"left_children":[1,3,5,-1,7,9,11,13,15,17,19,21,23,-1,25,27,29,31,33,35,37,39,41,43,45,-1,-1,-1,-1,-1,-1,-1,-1,-1,-1,-1,-1,-1,-1,-1,-1,-1,-1,-1,-1,-1,-1],"loss_changes":[1.2851004E2,9.835943E1,7.687523E1,0E0,4.8560776E1,1.9856934E2,1.6405911E2,6.692154E0,7.155255E1,2.8882858E1,7.714975E1,9.52223E1,1.645053E2,0E0,7.246188E0,1.3880692E1,5.981639E1,1.649781E1,2.1330526E1,1.3819714E1,9.075554E1,8.3259503E2,2.828534E2,7.4896484E1,7.414101E1,0E0,0E0,0E0,0E0,0E0,0E0,0E0,0E0,0E0,0E0,0E0,0E0,0E0,0E0,0E0,0E0,0E0,0E0,0E0,0E0,0E0,0E0],"parents":[2147483647,0,0,1,1,2,2,4,4,5,5,6,6,7,7,8,8,9,9,10,10,11,11,12,12,14,14,15,15,16,16,17,17,18,18,19,19,20,20,21,21,22,22,23,23,24,24],"right_children":[2,4,6,-1,8,10,12,14,16,18,20,22,24,-1,26,28,30,32,34,36,38,40,42,44,46,-1,-1,-1,-1,-1,-1,-1,-1,-1,-1,-1,-1,-1,-1,-1,-1,-1,-1,-1,-1,-1,-1],"split_conditions":[-7.55395E-1,-8.333334E-1,-9.2139685E-1,8.048249E-2,-1.0072697E0,-6.4153653E-1,7.5E-1,-9.61944E-1,-4.8539025E-1,2.2296314E-1,0E0,-9.148398E-1,4.0213788E-1,8.3831474E-2,-6.055089E-1,5.316748E-2,-5.8145595E-1,-1.6666667E-1,1.6539118E-1,-5E-1,1.1473457E0,-8.3333336E-2,0E0,-1.2231901E0,-3.6623585E-1,-1.7147668E-2,5.8029946E-2,-7.530958E-2,-3.5403445E-3,1.1478542E-2,-2.1875117E-2,3.225152E-2,-5.495132E-2,6.5504196E-3,-2.720714E-2,-2.715961E-3,-6.914894E-2,1.360664E-2,4.4486657E-2,3.444236E-2,-3.2823008E-2,-6.548165E-3,1.0618419E-2,-6.074009E-2,-2.142616E-2,-3.7326407E-2,2.2281833E-2],"split_indices":[24,25,22,0,22,20,25,21,15,3,25,20,20,0,15,27,27,25,24,35,20,25,25,20,24,0,0,0,0,0,0,0,0,0,0,0,0,0,0,0,0,0,0,0,0,0,0],"split_type":[0,0,0,0,0,0,0,0,0,0,0,0,0,0,0,0,0,0,0,0,0,0,0,0,0,0,0,0,0,0,0,0,0,0,0,0,0,0,0,0,0,0,0,0,0,0,0],"sum_hessian":[1.6659133E4,1.0989501E3,1.5560183E4,2.473897E1,1.0742112E3,1.9935804E3,1.3566603E4,2.1092922E1,1.0531182E3,3.0329462E2,1.6902858E3,1.2228751E4,1.3378512E3,9.761931E0,1.1330991E1,7.184743E1,9.812708E2,9.201964E1,2.11275E2,3.9037964E1,1.6512478E3,2.0574045E3,1.0171347E4,9.721022E2,3.6574902E2,5.1252756E0,6.205715E0,6.422112E1,7.626301E0,1.6004056E2,8.212302E2,5.1482587E0,8.6871376E1,6.899816E1,1.4227682E2,1.0806559E1,2.8231407E1,1.3635045E3,2.8774338E2,1.3645977E3,6.9280695E2,6.2950435E3,3.8763032E3,1.41458E2,8.3064417E2,6.1999413E1,3.037496E2],"tree_param":{"num_deleted":"0","num_feature":"40","num_nodes":"47","size_leaf_vector":"1"}},{"base_weights":[-7.8011333E-4,-1.7318386E-1,3.6776777E-2,6.924982E-1,-2.3334683E-1,4.3892145E-2,-5.5062073E-1,8.660649E-1,-9.203948E-2,6.3837767E-1,-2.941073E-1,2.942577E-1,2.6705455E-2,-1.1895078E0,-1.1552675E-1,1.0022296E0,-7.459591E-1,7.407466E-1,-8.790329E-2,-4.2244714E-1,-6.41697E-2,-4.5151708E-1,4.0068808E-1,1.075418E-1,-5.518536E-2,-1.3350561E-1,-1.699819E0,-6.2722784E-1,9.32005E-1,-7.5567462E-3,6.1583437E-2,2.098402E-2,-8.0684945E-2,7.3720436E-3,5.532086E-2,-8.402317E-2,-1.9655589E-2,-4.385356E-3,9.0323314E-2,-4.7889587E-2,3.3849534E-3,-2.8024469E-2,2.5316222E-2,1.72054E-2,-1.5346688E-2,-7.982438E-2,1.6671624E-3,4.0532704E-2,-7.993653E-2,-9.344394E-2,-4.4213768E-2,1.9363511E-2,-4.446768E-2,6.342658E-2,-1.1106276E-2],"categories":[],"categories_nodes":[],"categories_segments":[],"categories_sizes":[],"default_left":[0,0,0,0,0,0,0,0,0,0,0,0,0,0,0,0,0,0,0,0,0,0,0,0,0,0,0,0,0,0,0,0,0,0,0,0,0,0,0,0,0,0,0,0,0,0,0,0,0,0,0,0,0,0,0],"id":9,"left_children":[1,3,5,7,9,11,13,15,-1,17,19,21,23,25,27,29,31,33,-1,35,37,39,41,43,45,47,49,51,53,-1,-1,-1,-1,-1,-1,-1,-1,-1,-1,-1,-1,-1,-1,-1,-1,-1,-1,-1,-1,-1,-1,-1,-1,-1,-1],"loss_changes":[1.0771264E2,1.5513945E2,5.711534E1,8.6725586E1,1.4759506E2,5.806954E1,4.5327755E1,4.0670456E1,0E0,4.586669E1,7.676953E1,6.899022E1,8.362127E1,3.5422485E1,5.3331673E1,4.468062E1,1.5586089E1,3.7786285E1,0E0,6.096942E1,4.1255405E1,2.86481E1,7.736659E1,6.2340125E2,8.5631757E2,3.261398E1,4.484955E0,1.8083912E1,1.2980814E1,0E0,0E0,0E0,0E0,0E0,0E0,0E0,0E0,0E0,0E0,0E0,0E0,0E0,0E0,0E0,0E0,0E0,0E0,0E0,0E0,0E0,0E0,0E0,0E0,0E0,0E0],"parents":[2147483647,0,0,1,1,2,2,3,3,4,4,5,5,6,6,7,7,9,9,10,10,11,11,12,12,13,13,14,14,15,15,16,16,17,17,19,19,20,20,21,21,22,22,23,23,24,24,25,25,26,26,27,27,28,28],"right_children":[2,4,6,8,10,12,14,16,-1,18,20,22,24,26,28,30,32,34,-1,36,38,40,42,44,46,48,50,52,54,-1,-1,-1,-1,-1,-1,-1,-1,-1,-1,-1,-1,-1,-1,-1,-1,-1,-1,-1,-1,-1,-1,-1,-1,-1,-1],"split_conditions":[-4.6599516E-1,-8.333334E-1,3.0355957E0,1.1521447E0,-9.716709E-1,-1.3519709E0,6.3891816E-1,1.1690215E0,-9.203948E-2,-5.6115854E-1,1.693215E-1,-6.4153653E-1,-8.3333336E-2,-1.0460513E0,1.9840622E-1,4.6063083E-1,7.2490937E-1,-8.0240923E-1,-8.790329E-2,-9.0933686E-1,1.0192095E0,-1.5086085E0,0E0,2.1792383E-1,0E0,-2.5000003E-1,-2.5000003E-1,6.289316E-1,-2.5000003E-1,-7.5567462E-3,6.1583437E-2,2.098402E-2,-8.0684945E-2,7.3720436E-3,5.532086E-2,-8.402317E-2,-1.9655589E-2,-4.385356E-3,9.0323314E-2,-4.7889587E-2,3.3849534E-3,-2.8024469E-2,2.5316222E-2,1.72054E-2,-1.5346688E-2,-7.982438E-2,1.6671624E-3,4.0532704E-2,-7.993653E-2,-9.344394E-2,-4.4213768E-2,1.9363511E-2,-4.446768E-2,6.342658E-2,-1.1106276E-2],"split_indices":[24,25,27,28,22,21,21,15,0,27,14,20,25,15,32,22,27,15,0,27,28,22,25,20,25,25,25,18,25,0,0,0,0,0,0,0,0,0,0,0,0,0,0,0,0,0,0,0,0,0,0,0,0,0,0],"split_type":[0,0,0,0,0,0,0,0,0,0,0,0,0,0,0,0,0,0,0,0,0,0,0,0,0,0,0,0,0,0,0,0,0,0,0,0,0,0,0,0,0,0,0,0,0,0,0,0,0,0,0,0,0,0,0],"sum_hessian":[1.6633305E4,2.974651E3,1.3658653E4,1.9261487E2,2.7820361E3,1.3496095E4,1.6255797E2,1.8088011E2,1.1734767E1,1.8065723E2,2.601379E3,8.659098E2,1.2630186E4,6.515346E1,9.740451E1,1.6714035E2,1.373976E1,1.7391882E2,6.7383995E0,1.6689921E3,9.3238666E2,1.0773699E2,7.581728E2,6.355857E3,6.2743286E3,2.1638298E1,4.351516E1,6.570835E1,3.1696156E1,2.7789074E1,1.3935127E2,6.083762E0,7.6559987E0,6.6852646E1,1.0706618E2,3.6749397E1,1.6322427E3,9.217419E2,1.0644776E1,5.412063E1,5.3616364E1,7.464822E1,6.835246E2,4.0464648E3,2.3093918E3,3.3988168E2,5.934447E3,1.3430625E1,8.207672E0,3.497365E1,8.541509E0,1.3393692E1,5.231466E1,2.4463776E1,7.232381E0],"tree_param":{"num_deleted":"0","num_feature":"40","num_nodes":"55","size_leaf_vector":"1"}},{"base_weights":[5.781273E-3,-1.6940476E-1,4.366078E-2,5.752935E-1,-2.2127236E-1,5.1686913E-2,-6.264571E-1,-2.509725E-1,8.739357E-1,5.853744E-1,-2.7822614E-1,3.1967074E-1,3.355659E-2,-1.4066184E0,-2.8365487E-1,-8.107295E-1,8.465169E-1,3.6037588E-1,1.2154537E0,8.630904E-1,-1.3110745E-1,-8.8171196E-1,-2.3238158E-1,-1.7205371E-1,4.3175495E-1,1.17501885E-1,-5.213803E-2,-1.5801528E0,-3.4449173E-3,-3.844215E-2,-7.52457E-2,-8.60576E-3,-6.8273954E-2,8.14799E-2,1.1277716E-2,6.906565E-2,-2.0934679E-2,7.466719E-2,2.336132E-3,2.8813814E-3,6.488978E-2,-5.9663218E-2,4.2749975E-2,-6.3654445E-2,-5.5731027E-3,-1.0516721E-2,-6.748956E-2,-3.217794E-2,1.1868631E-2,-2.0523624E-2,2.6532829E-2,2.8289154E-2,-4.984869E-3,-7.753136E-2,1.6904616E-3,-9.0396866E-2,-6.764038E-3,6.50621E-2,-1.3853977E-2],"categories":[],"categories_nodes":[],"categories_segments":[],"categories_sizes":[],"default_left":[0,0,0,0,0,0,0,0,0,0,0,0,0,0,0,0,0,0,0,0,0,0,0,0,0,0,0,0,0,0,0,0,0,0,0,0,0,0,0,0,0,0,0,0,0,0,0,0,0,0,0,0,0,0,0,0,0,0,0],"id":10,"left_children":[1,3,5,7,9,11,13,15,17,19,21,23,25,27,29,31,33,35,37,39,41,43,45,47,49,51,53,55,-1,57,-1,-1,-1,-1,-1,-1,-1,-1,-1,-1,-1,-1,-1,-1,-1,-1,-1,-1,-1,-1,-1,-1,-1,-1,-1,-1,-1,-1,-1],"loss_changes":[1.1008944E2,1.1405004E2,7.339621E1,4.76771E1,1.26873245E2,6.548265E1,4.2796833E1,3.2530357E1,2.4377823E1,3.6370037E1,7.108792E1,4.714559E1,9.083855E1,1.1278198E1,3.3920673E1,1.2107164E1,8.383917E0,4.665664E1,2.7392624E1,4.595014E1,5.524154E1,5.4595566E1,5.8750366E1,3.0896133E1,5.817711E1,6.211347E2,8.048619E2,1.4030754E1,0E0,3.089709E1,0E0,0E0,0E0,0E0,0E0,0E0,0E0,0E0,0E0,0E0,0E0,0E0,0E0,0E0,0E0,0E0,0E0,0E0,0E0,0E0,0E0,0E0,0E0,0E0,0E0,0E0,0E0,0E0,0E0],"parents":[2147483647,0,0,1,1,2,2,3,3,4,4,5,5,6,6,7,7,8,8,9,9,10,10,11,11,12,12,13,13,14,14,15,15,16,16,17,17,18,18,19,19,20,20,21,21,22,22,23,23,24,24,25,25,26,26,27,27,29,29],"right_children":[2,4,6,8,10,12,14,16,18,20,22,24,26,28,30,32,34,36,38,40,42,44,46,48,50,52,54,56,-1,58,-1,-1,-1,-1,-1,-1,-1,-1,-1,-1,-1,-1,-1,-1,-1,-1,-1,-1,-1,-1,-1,-1,-1,-1,-1,-1,-1,-1,-1],"split_conditions":[-4.6599516E-1,-8.333334E-1,3.0355957E0,-4.610746E-1,-9.716709E-1,-1.3519709E0,4.0321836E0,1.1798873E0,-5.013099E-1,4.788661E-1,-5.834567E-1,-3.738726E-1,-8.3333336E-2,1.2171547E0,-8.3333336E-2,0E0,-9.6932304E-1,9.20453E-1,-5.349292E-1,-7.557202E-1,1.1666666E0,-5.103215E-1,6.115408E-1,-1.5086085E0,0E0,-5.102509E-1,0E0,9.6374536E-1,-3.4449173E-3,5.575569E-1,-7.52457E-2,-8.60576E-3,-6.8273954E-2,8.14799E-2,1.1277716E-2,6.906565E-2,-2.0934679E-2,7.466719E-2,2.336132E-3,2.8813814E-3,6.488978E-2,-5.9663218E-2,4.2749975E-2,-6.3654445E-2,-5.5731027E-3,-1.0516721E-2,-6.748956E-2,-3.217794E-2,1.1868631E-2,-2.0523624E-2,2.6532829E-2,2.8289154E-2,-4.984869E-3,-7.753136E-2,1.6904616E-3,-9.0396866E-2,-6.764038E-3,6.50621E-2,-1.3853977E-2],"split_indices":[24,25,27,17,22,21,27,22,26,26,15,20,25,21,25,36,26,22,24,15,25,22,17,22,25,20,25,16,0,18,0,0,0,0,0,0,0,0,0,0,0,0,0,0,0,0,0,0,0,0,0,0,0,0,0,0,0,0,0],"split_type":[0,0,0,0,0,0,0,0,0,0,0,0,0,0,0,0,0,0,0,0,0,0,0,0,0,0,0,0,0,0,0,0,0,0,0,0,0,0,0,0,0,0,0,0,0,0,0,0,0,0,0,0,0,0,0,0,0,0,0],"sum_hessian":[1.6587713E4,2.9484019E3,1.3639311E4,1.9132518E2,2.7570767E3,1.3478795E4,1.6051535E2,5.083565E1,1.4048952E2,1.8121512E2,2.5758616E3,8.53063E2,1.2625732E4,4.80525E1,1.1246285E2,3.383827E1,1.6997383E1,5.6932354E1,8.355717E1,1.3044762E2,5.07675E1,1.8057574E2,2.395286E3,1.5825365E2,6.948093E2,6.377777E3,6.2479556E3,4.237431E1,5.678191E0,9.451664E1,1.7946217E1,1.6339214E1,1.7499056E1,6.799008E0,1.0198376E1,2.4306585E1,3.262577E1,6.728178E1,1.627539E1,4.6121647E1,8.4325966E1,2.434014E1,2.6427362E1,1.1930305E2,6.127269E1,2.350105E3,4.5180798E1,7.328502E1,8.496863E1,7.2685265E1,6.221241E2,2.0810525E3,4.296724E3,3.3799402E2,5.9099614E3,3.638666E1,5.9876475E0,1.3617378E1,8.089926E1],"tree_param":{"num_deleted":"0","num_feature":"40","num_nodes":"59","size_leaf_vector":"1"}},{"base_weights":[-4.4827093E-3,-5.7343906E-1,7.723163E-3,3.9069104E-1,-7.0878613E-1,1.6896069E-1,-1.9364884E-2,8.555018E-2,-9.9435747E-1,-1.3078849E-1,-1.0107881E0,-4.002915E-1,2.9640844E-1,8.0023184E-2,-1.1510253E-1,-8.086878E-2,3.647928E-2,-8.328839E-1,1.0169108E0,1.3202561E-1,-1.2458031E0,-7.972847E-1,-1.8284497E-1,-2.3443566E-1,3.512067E-1,3.0585206E-1,-3.337431E-1,-2.2833233E-1,5.276181E-1,-6.98828E-2,4.5450716E-4,-7.050774E-2,7.4699685E-2,-2.1526795E-2,8.880478E-2,1.3883223E-2,-6.916852E-2,-5.9447695E-2,-1.002551E-2,-2.7536616E-2,6.0525783E-3,2.1478988E-4,-6.321168E-2,9.446306E-3,3.0347586E-2,3.5174467E-2,9.855359E-3,-1.0236188E-2,-4.4988964E-2,-3.6680274E-2,-7.4628205E-3,-4.515409E-2,3.6002826E-2],"categories":[],"categories_nodes":[],"categories_segments":[],"categories_sizes":[],"default_left":[0,0,0,0,0,0,0,0,0,0,0,0,0,0,0,0,0,0,0,0,0,0,0,0,0,0,0,0,0,0,0,0,0,0,0,0,0,0,0,0,0,0,0,0,0,0,0,0,0,0,0,0,0],"id":11,"left_children":[1,3,5,7,9,11,13,-1,15,17,19,21,23,25,27,-1,-1,29,31,33,35,37,39,41,43,45,47,49,51,-1,-1,-1,-1,-1,-1,-1,-1,-1,-1,-1,-1,-1,-1,-1,-1,-1,-1,-1,-1,-1,-1,-1,-1],"loss_changes":[1.147197E2,4.55506E1,7.063915E1,8.0982895E1,5.3036255E1,1.6889282E2,1.317692E2,0E0,2.4584373E1,8.600305E1,5.3856506E1,3.6626892E1,5.539096E1,6.3500446E2,5.13448E2,0E0,0E0,3.145353E1,4.9073166E1,3.313859E1,3.515518E1,3.4928513E1,3.0982185E1,4.389048E1,7.142856E1,1.8995602E2,1.7505542E2,2.3953165E2,2.9161694E2,0E0,0E0,0E0,0E0,0E0,0E0,0E0,0E0,0E0,0E0,0E0,0E0,0E0,0E0,0E0,0E0,0E0,0E0,0E0,0E0,0E0,0E0,0E0,0E0],"parents":[2147483647,0,0,1,1,2,2,3,3,4,4,5,5,6,6,8,8,9,9,10,10,11,11,12,12,13,13,14,14,17,17,18,18,19,19,20,20,21,21,22,22,23,23,24,24,25,25,26,26,27,27,28,28],"right_children":[2,4,6,8,10,12,14,-1,16,18,20,22,24,26,28,-1,-1,30,32,34,36,38,40,42,44,46,48,50,52,-1,-1,-1,-1,-1,-1,-1,-1,-1,-1,-1,-1,-1,-1,-1,-1,-1,-1,-1,-1,-1,-1,-1,-1],"split_conditions":[-1.0282716E0,-4.166667E-1,-7.1497E-1,1.1338972E-1,0E0,-6.701837E-1,-1.6666667E-1,8.555018E-2,4.545216E-1,3.1449172E-1,-3.8299945E-1,-1.3584517E0,-1.5154994E0,2.2519372E-1,8.967561E-1,-8.086878E-2,3.647928E-2,2.4174474E-1,-9.0933686E-1,6.666667E-1,-4.293115E-1,1.6185946E0,4.699086E-1,4.5100906E-1,4.0213788E-1,-1.1438245E0,2.6923138E-1,0E0,0E0,-6.98828E-2,4.5450716E-4,-7.050774E-2,7.4699685E-2,-2.1526795E-2,8.880478E-2,1.3883223E-2,-6.916852E-2,-5.9447695E-2,-1.002551E-2,-2.7536616E-2,6.0525783E-3,2.1478988E-4,-6.321168E-2,9.446306E-3,3.0347586E-2,3.5174467E-2,9.855359E-3,-1.0236188E-2,-4.4988964E-2,-3.6680274E-2,-7.4628205E-3,-4.515409E-2,3.6002826E-2],"split_indices":[24,25,27,15,35,20,25,0,15,26,26,20,27,20,20,0,0,32,27,25,13,3,2,14,20,20,3,25,25,0,0,0,0,0,0,0,0,0,0,0,0,0,0,0,0,0,0,0,0,0,0,0,0],"split_type":[0,0,0,0,0,0,0,0,0,0,0,0,0,0,0,0,0,0,0,0,0,0,0,0,0,0,0,0,0,0,0,0,0,0,0,0,0,0,0,0,0,0,0,0,0,0,0,0,0,0,0,0,0],"sum_hessian":[1.651761E4,3.459457E2,1.6171664E4,4.2354115E1,3.035916E2,2.3253184E3,1.3846346E4,2.1563313E1,2.07908E1,1.04679665E2,1.9891194E2,4.249803E2,1.900338E3,6.793734E3,7.0526113E3,1.5317136E1,5.4736648E0,6.511836E1,3.9561306E1,3.400297E1,1.6490897E2,1.4945427E2,2.75526E2,1.7750685E2,1.7228312E3,4.3951646E3,2.3985693E3,5.996786E3,1.055825E3,3.8580017E1,2.6538343E1,6.177697E0,3.338361E1,2.588416E1,8.118813E0,1.3573457E1,1.5133551E2,8.963417E1,5.9820107E1,1.2427295E2,1.5125305E2,1.4490929E2,3.259756E1,1.0550793E3,6.677518E2,9.426811E2,3.4524836E3,1.9544451E3,4.4412433E2,8.1038354E2,5.186403E3,1.2474018E2,9.310848E2],"tree_param":{"num_deleted":"0","num_feature":"40","num_nodes":"53","size_leaf_vector":"1"}},{"base_weights":[-1.9593814E-3,-6.500296E-1,9.019374E-3,-1.1257876E0,-2.6484856E-1,8.4924744E-4,6.0368246E-1,6.626776E-2,-1.2632796E0,3.0688444E-1,-1.0467515E0,7.807728E-2,-6.7808956E-2,-1.2315697E-1,7.917347E-1,6.7518987E-3,-1.3297306E0,7.0775E-1,-1.2751328E0,-1.5134537E0,1.3369129E0,1.8840416E-1,-2.52798E-1,-7.5762264E-2,2.03913E-2,-7.5659804E-2,1.8717733E-1,1.6530472E-1,9.4956964E-1,-3.9469715E-2,-7.577577E-2,-6.3327536E-2,4.6396993E-2,-7.989635E-2,-1.794485E-2,-2.9643824E-2,-7.978388E-2,4.2683613E-2,7.99254E-2,1.4131452E-2,-3.1043685E-3,-8.586274E-3,-3.6724675E-2,-4.5575323E-3,1.4684985E-2,-1.0429713E-2,5.7715405E-2,2.085385E-2,-3.552177E-2,1.4774811E-2,5.673904E-2],"categories":[],"categories_nodes":[],"categories_segments":[],"categories_sizes":[],"default_left":[0,0,0,0,0,0,0,0,0,0,0,0,0,0,0,0,0,0,0,0,0,0,0,0,0,0,0,0,0,0,0,0,0,0,0,0,0,0,0,0,0,0,0,0,0,0,0,0,0,0,0],"id":12,"left_children":[1,3,5,7,9,11,13,-1,15,17,19,21,23,25,27,-1,29,31,33,35,37,39,41,-1,43,-1,45,47,49,-1,-1,-1,-1,-1,-1,-1,-1,-1,-1,-1,-1,-1,-1,-1,-1,-1,-1,-1,-1,-1,-1],"loss_changes":[1.17748375E2,5.0222145E1,7.906527E1,4.3138123E1,6.901014E1,8.5130295E1,3.0243843E1,0E0,1.1052139E1,5.7679016E1,7.447217E1,2.7587677E2,1.0850742E3,2.021269E1,1.71809E1,0E0,1.0026306E1,3.250642E1,4.8850327E0,3.2118378E0,5.0483704E-2,1.3377678E2,7.367833E1,0E0,2.4427615E2,0E0,1.5037508E1,8.344408E0,1.6606857E1,0E0,0E0,0E0,0E0,0E0,0E0,0E0,0E0,0E0,0E0,0E0,0E0,0E0,0E0,0E0,0E0,0E0,0E0,0E0,0E0,0E0,0E0],"parents":[2147483647,0,0,1,1,2,2,3,3,4,4,5,5,6,6,8,8,9,9,10,10,11,11,12,12,13,13,14,14,16,16,17,17,18,18,19,19,20,20,21,21,22,22,24,24,26,26,27,27,28,28],"right_children":[2,4,6,8,10,12,14,-1,16,18,20,22,24,26,28,-1,30,32,34,36,38,40,42,-1,44,-1,46,48,50,-1,-1,-1,-1,-1,-1,-1,-1,-1,-1,-1,-1,-1,-1,-1,-1,-1,-1,-1,-1,-1,-1],"split_conditions":[-1.0604938E0,-1.4547531E-1,1.5411689E0,-5.4394186E-1,1.3029405E-1,-8.3333336E-2,-1.797492E0,6.626776E-2,-8.1284326E-1,2.5000003E-1,0E0,4.974221E-1,0E0,6.666667E-1,-1.7100986E0,6.7518987E-3,0E0,-6.936281E-1,1.7830761E-1,-2.8448814E-1,-3.7225392E-1,1.2383088E-1,2.0734289E0,-7.5762264E-2,4.258793E-1,-7.5659804E-2,5.4790753E-1,-1.9425657E0,3.090182E-1,-3.9469715E-2,-7.577577E-2,-6.3327536E-2,4.6396993E-2,-7.989635E-2,-1.794485E-2,-2.9643824E-2,-7.978388E-2,4.2683613E-2,7.99254E-2,1.4131452E-2,-3.1043685E-3,-8.586274E-3,-3.6724675E-2,-4.5575323E-3,1.4684985E-2,-1.0429713E-2,5.7715405E-2,2.085385E-2,-3.552177E-2,1.4774811E-2,5.673904E-2],"split_indices":[24,27,23,17,15,25,22,0,23,25,25,12,25,25,3,0,35,32,17,4,17,23,12,0,12,0,17,13,26,0,0,0,0,0,0,0,0,0,0,0,0,0,0,0,0,0,0,0,0,0,0],"split_type":[0,0,0,0,0,0,0,0,0,0,0,0,0,0,0,0,0,0,0,0,0,0,0,0,0,0,0,0,0,0,0,0,0,0,0,0,0,0,0,0,0,0,0,0,0,0,0,0,0,0,0],"sum_hessian":[1.654748E4,2.7468622E2,1.6272794E4,1.2203342E2,1.526528E2,1.6053238E4,2.1955536E2,6.022773E0,1.1601064E2,8.8528015E1,6.4124794E1,7.555045E3,8.498193E3,4.519964E1,1.7435573E2,5.2161393E0,1.107945E2,7.107183E1,1.7456184E1,5.393068E1,1.0194118E1,5.666156E3,1.8888894E3,4.871698E2,8.0110234E3,7.5419536E0,3.7657684E1,3.5501476E1,1.3885425E2,2.9690798E1,8.110371E1,6.6543617E0,6.4417465E1,1.2358286E1,5.0978975E0,5.0952115E0,4.8835464E1,5.077628E0,5.1164894E0,4.117274E3,1.5488818E3,1.6179365E3,2.7095282E2,5.689646E3,2.3213774E3,2.7278875E1,1.0378811E1,2.798083E1,7.5206475E0,3.1214756E1,1.07639496E2],"tree_param":{"num_deleted":"0","num_feature":"40","num_nodes":"51","size_leaf_vector":"1"}},{"base_weights":[2.3593532E-3,-1.5481907E-1,3.6284108E-2,6.5258497E-1,-2.0809148E-1,4.372315E-2,-6.075965E-1,7.57787E-1,-8.61853E-2,5.904281E-1,-2.6998916E-1,5.6962114E-2,-2.3014773E-1,5.1182956E-1,-8.0969334E-1,3.0132926E-1,1.2002735E0,7.568726E-1,-8.753152E-2,-1.1217812E0,-2.3772155E-1,1.2425399E-1,-2.9414392E-3,-1.4389174E0,-1.4633526E-1,9.3510324E-1,-4.445158E-2,-1.2693421E0,-1.2495241E-1,3.9344806E-2,-4.5714006E-2,-8.711175E-3,6.9717996E-2,4.9597897E-2,-1.646641E-2,-6.708786E-2,-1.9384658E-2,-1.7096525E-2,5.17619E-4,1.516325E-2,-1.8622322E-2,-7.2928436E-2,3.372846E-3,-3.968183E-3,-8.704735E-2,-3.049074E-2,3.191612E-3,8.155748E-2,2.3083212E-2,-2.3307865E-2,-7.10013E-2,4.2073306E-2,-3.5364687E-2],"categories":[],"categories_nodes":[],"categories_segments":[],"categories_sizes":[],"default_left":[0,0,0,0,0,0,0,0,0,0,0,0,0,0,0,0,0,0,0,0,0,0,0,0,0,0,0,0,0,0,0,0,0,0,0,0,0,0,0,0,0,0,0,0,0,0,0,0,0,0,0,0,0],"id":13,"left_children":[1,3,5,7,9,11,13,15,-1,17,19,21,23,25,27,29,31,33,-1,35,37,39,41,43,45,47,-1,49,51,-1,-1,-1,-1,-1,-1,-1,-1,-1,-1,-1,-1,-1,-1,-1,-1,-1,-1,-1,-1,-1,-1,-1,-1],"loss_changes":[8.786383E1,1.2595385E2,6.494173E1,4.662886E1,1.3582841E2,4.859395E1,3.5448425E1,3.4844025E1,0E0,7.839002E1,6.976822E1,5.1523857E1,6.2402176E1,1.523686E1,4.124977E1,5.2150936E1,2.376477E1,4.7654976E1,0E0,1.445475E1,6.3503983E1,5.3535126E2,6.931357E2,1.6270683E1,5.644523E1,5.5558357E0,0E0,8.852165E0,3.0958714E1,0E0,0E0,0E0,0E0,0E0,0E0,0E0,0E0,0E0,0E0,0E0,0E0,0E0,0E0,0E0,0E0,0E0,0E0,0E0,0E0,0E0,0E0,0E0,0E0],"parents":[2147483647,0,0,1,1,2,2,3,3,4,4,5,5,6,6,7,7,9,9,10,10,11,11,12,12,13,13,14,14,15,15,16,16,17,17,19,19,20,20,21,21,22,22,23,23,24,24,25,25,27,27,28,28],"right_children":[2,4,6,8,10,12,14,16,-1,18,20,22,24,26,28,30,32,34,-1,36,38,40,42,44,46,48,-1,50,52,-1,-1,-1,-1,-1,-1,-1,-1,-1,-1,-1,-1,-1,-1,-1,-1,-1,-1,-1,-1,-1,-1,-1,-1],"split_conditions":[-4.6599516E-1,-9.716709E-1,3.0355957E0,-5.6115854E-1,-8.333334E-1,6.115408E-1,-1.2246089E0,5E-1,-8.61853E-2,1.1521447E0,-8.4495E-1,-8.3333336E-2,-1.25E0,3.62707E0,3.607174E-1,4.788661E-1,-9.3237364E-1,-5.089184E-1,-8.753152E-2,1.0021825E-2,3.5366157E-1,4.5842642E-1,0E0,-1.3285677E0,1.9876594E-3,5E-1,-4.445158E-2,-9.6087795E-1,1.7845304E-1,3.9344806E-2,-4.5714006E-2,-8.711175E-3,6.9717996E-2,4.9597897E-2,-1.646641E-2,-6.708786E-2,-1.9384658E-2,-1.7096525E-2,5.17619E-4,1.516325E-2,-1.8622322E-2,-7.2928436E-2,3.372846E-3,-3.968183E-3,-8.704735E-2,-3.049074E-2,3.191612E-3,8.155748E-2,2.3083212E-2,-2.3307865E-2,-7.10013E-2,4.2073306E-2,-3.5364687E-2],"split_indices":[24,22,27,27,25,17,23,35,0,28,27,25,25,24,32,26,15,24,0,15,26,20,25,4,24,35,0,3,23,0,0,0,0,0,0,0,0,0,0,0,0,0,0,0,0,0,0,0,0,0,0,0,0],"split_type":[0,0,0,0,0,0,0,0,0,0,0,0,0,0,0,0,0,0,0,0,0,0,0,0,0,0,0,0,0,0,0,0,0,0,0,0,0,0,0,0,0,0,0,0,0,0,0,0,0,0,0,0,0],"sum_hessian":[1.6475793E4,2.9241604E3,1.3551634E4,1.8029742E2,2.743863E3,1.3397774E4,1.5385844E2,1.7330602E2,6.991417E0,1.967769E2,2.5470862E3,1.2780743E4,6.1703125E2,2.3294767E1,1.3056367E2,8.613368E1,8.7172325E1,1.8434691E2,1.2429994E1,9.1734604E1,2.4553516E3,6.018673E3,6.762071E3,3.8960632E1,5.780706E2,1.8144762E1,5.150005E0,7.761141E1,5.295227E1,6.180055E1,2.4333136E1,1.0798809E1,7.637352E1,1.5161894E2,3.272797E1,6.994668E1,2.1787926E1,1.7287665E3,7.265851E2,4.4244785E3,1.5941942E3,3.1103705E2,6.4510337E3,7.311493E0,3.1649137E1,1.7975587E2,3.9831476E2,6.3555536E0,1.1789209E1,1.2907054E1,6.470435E1,1.9743004E1,3.3209267E1],"tree_param":{"num_deleted":"0","num_feature":"40","num_nodes":"53","size_leaf_vector":"1"}},{"base_weights":[-5.892616E-4,-1.6307084E-1,3.4153733E-2,5.722575E-1,-2.1363467E-1,1.7259214E-2,2.7569026E-1,7.1848243E-1,-8.293636E-2,5.66944E-1,-2.680569E-1,9.219507E-2,-5.9756137E-2,-4.907484E-1,4.2740813E-1,1.1154808E0,1.3525826E-1,-7.326602E-2,9.4323E-1,-1.1692217E-1,-4.52669E-1,1.7975043E-1,-3.2918152E-1,-7.142197E-2,1.7068021E-2,-7.516506E-1,8.9862496E-1,2.775029E-1,7.8955233E-1,-4.1806586E-2,6.4080454E-2,1.5294208E-2,-6.591372E-2,2.6598359E-2,-3.1559464E-2,5.444069E-2,-8.019956E-2,-4.441623E-2,-3.4608957E-3,-1.6576776E-2,-5.7420176E-2,2.8041566E-2,7.056658E-3,-1.2261644E-2,-5.5544436E-2,-1.6181078E-2,5.6589106E-3,-5.0487686E-2,9.537662E-3,7.870185E-2,-1.2881811E-2,7.904533E-3,4.6246026E-2,4.4762693E-2,-2.6605183E-2],"categories":[],"categories_nodes":[],"categories_segments":[],"categories_sizes":[],"default_left":[0,0,0,0,0,0,0,0,0,0,0,0,0,0,0,0,0,0,0,0,0,0,0,0,0,0,0,0,0,0,0,0,0,0,0,0,0,0,0,0,0,0,0,0,0,0,0,0,0,0,0,0,0,0,0],"id":14,"left_children":[1,3,5,7,9,11,13,15,-1,17,19,21,23,25,27,29,31,33,35,37,39,41,43,-1,45,47,49,51,53,-1,-1,-1,-1,-1,-1,-1,-1,-1,-1,-1,-1,-1,-1,-1,-1,-1,-1,-1,-1,-1,-1,-1,-1,-1,-1],"loss_changes":[9.338425E1,1.0847241E2,5.5608E1,6.2445477E1,1.1601253E2,7.352242E1,1.038023E2,4.0811417E1,0E0,4.296899E1,7.1103226E1,2.3827632E2,6.606395E2,5.420606E1,4.018126E1,3.5154587E1,1.8455723E1,2.2909105E1,4.3365417E1,5.1591072E1,9.6339294E1,7.8604034E1,7.2646225E1,0E0,1.9485538E2,3.0566216E1,1.8993942E1,4.0663208E1,3.083696E1,0E0,0E0,0E0,0E0,0E0,0E0,0E0,0E0,0E0,0E0,0E0,0E0,0E0,0E0,0E0,0E0,0E0,0E0,0E0,0E0,0E0,0E0,0E0,0E0,0E0,0E0],"parents":[2147483647,0,0,1,1,2,2,3,3,4,4,5,5,6,6,7,7,9,9,10,10,11,11,12,12,13,13,14,14,15,15,16,16,17,17,18,18,19,19,20,20,21,21,22,22,24,24,25,25,26,26,27,27,28,28],"right_children":[2,4,6,8,10,12,14,16,-1,18,20,22,24,26,28,30,32,34,36,38,40,42,44,-1,46,48,50,52,54,-1,-1,-1,-1,-1,-1,-1,-1,-1,-1,-1,-1,-1,-1,-1,-1,-1,-1,-1,-1,-1,-1,-1,-1,-1,-1],"split_conditions":[-4.6599516E-1,-8.333334E-1,1.1121526E0,1.1521447E0,-9.716709E-1,-8.3333336E-2,0E0,-5.6195074E-1,-8.293636E-2,-8.0240923E-1,6.788352E-2,8.277753E-1,0E0,1.3586236E0,-8.218262E-1,4.6063083E-1,1.2137178E0,7.510342E-2,-4.19912E-1,-1.0668144E0,7.5E-1,-1.7389493E0,9.68521E-1,-7.142197E-2,-6.648541E-1,-1.509951E-2,1.3156505E0,-2.1322507E-1,6.0650754E-1,-4.1806586E-2,6.4080454E-2,1.5294208E-2,-6.591372E-2,2.6598359E-2,-3.1559464E-2,5.444069E-2,-8.019956E-2,-4.441623E-2,-3.4608957E-3,-1.6576776E-2,-5.7420176E-2,2.8041566E-2,7.056658E-3,-1.2261644E-2,-5.5544436E-2,-1.6181078E-2,5.6589106E-3,-5.0487686E-2,9.537662E-3,7.870185E-2,-1.2881811E-2,7.904533E-3,4.6246026E-2,4.4762693E-2,-2.6605183E-2],"split_indices":[24,25,23,28,22,25,25,24,0,15,16,12,25,28,22,22,15,33,28,18,25,12,2,0,12,22,5,4,17,0,0,0,0,0,0,0,0,0,0,0,0,0,0,0,0,0,0,0,0,0,0,0,0,0,0],"split_type":[0,0,0,0,0,0,0,0,0,0,0,0,0,0,0,0,0,0,0,0,0,0,0,0,0,0,0,0,0,0,0,0,0,0,0,0,0,0,0,0,0,0,0,0,0,0,0,0,0,0,0,0,0,0,0],"sum_hessian":[1.6540555E4,2.9131262E3,1.3627429E4,1.8676492E2,2.7263613E3,1.2737559E4,8.8987006E2,1.7591306E2,1.0851875E1,1.7708018E2,2.549281E3,6.455838E3,6.2817207E3,1.4667451E2,7.4319556E2,1.04123795E2,7.178926E1,6.5849556E1,1.1123062E2,1.4026333E3,1.1466477E3,5.3456665E3,1.1101711E3,3.3291858E2,5.9488022E3,1.2387228E2,2.2802237E1,5.2687024E2,2.1632532E2,7.851715E0,9.627208E1,6.4954056E1,6.8352056E0,3.1607918E1,3.424164E1,1.05758644E2,5.471981E0,8.066221E1,1.3219711E3,9.778687E2,1.68779E2,4.906214E2,4.8550454E3,1.00369653E3,1.0647466E2,1.3084097E3,4.6403926E3,9.718424E1,2.6688034E1,1.4166047E1,8.63619E0,4.4587543E2,8.099482E1,2.006043E2,1.5721018E1],"tree_param":{"num_deleted":"0","num_feature":"40","num_nodes":"55","size_leaf_vector":"1"}},{"base_weights":[4.1196262E-3,1.8429321E-1,-2.0767828E-2,-2.7864575E-1,3.4218657E-1,1.3615587E-2,-3.1110525E-1,-7.5803864E-1,-1.2504202E-1,-3.980608E-1,4.0088558E-1,-5.469244E-1,2.3461813E-2,-4.8711976E-1,2.0966598E-1,-9.714311E-1,-5.0610606E-2,-5.0660795E-1,1.3168256E-1,-8.4485316E-1,4.2623493E-1,2.3541589E-1,6.8639034E-1,-1.3238993E0,-8.668344E-2,-1.6013285E-2,1.785934E-1,-9.1982013E-1,-3.2262722E-1,-5.330969E-1,4.2160422E-1,-5.9427686E-2,-2.6918526E-3,3.8172673E-2,-4.735555E-2,-1.274644E-2,-4.297587E-2,-7.3874122E-3,2.1991668E-2,5.311795E-3,-5.6062426E-2,-3.350217E-2,4.8955273E-2,-3.2642148E-3,2.038936E-2,-1.2134461E-3,3.7763517E-2,-7.340974E-2,1.3534382E-2,3.0973513E-2,-6.764266E-2,1.21877575E-2,-3.2006975E-3,-4.5714127E-3,1.5925895E-2,-5.2645404E-2,8.265355E-2,-4.4196498E-2,-6.702331E-3,-5.4614555E-2,1.3561146E-2,1.1741417E-2,3.8281854E-2],"categories":[],"categories_nodes":[],"categories_segments":[],"categories_sizes":[],"default_left":[0,0,0,0,0,0,0,0,0,0,0,0,0,0,0,0,0,0,0,0,0,0,0,0,0,0,0,0,0,0,0,0,0,0,0,0,0,0,0,0,0,0,0,0,0,0,0,0,0,0,0,0,0,0,0,0,0,0,0,0,0,0,0],"id":15,"left_children":[1,3,5,7,9,11,13,15,17,19,21,23,25,27,29,31,33,35,37,39,41,43,45,47,49,51,53,55,57,59,61,-1,-1,-1,-1,-1,-1,-1,-1,-1,-1,-1,-1,-1,-1,-1,-1,-1,-1,-1,-1,-1,-1,-1,-1,-1,-1,-1,-1,-1,-1,-1,-1],"loss_changes":[7.397438E1,1.4644583E2,1.4470612E2,3.744219E1,6.5052E1,7.1548645E1,1.407938E2,1.8594597E1,3.800155E1,4.0954865E1,6.523181E1,7.990919E1,7.8011154E1,8.137424E1,6.1370186E1,1.8828255E1,2.2380444E1,1.3633621E1,2.0067123E1,1.8997849E1,2.4542002E1,4.5527077E1,2.4854034E1,1.953569E1,1.2744996E2,1.26644485E2,9.76604E1,1.0978018E2,8.80483E1,3.9277554E1,1.9274239E1,0E0,0E0,0E0,0E0,0E0,0E0,0E0,0E0,0E0,0E0,0E0,0E0,0E0,0E0,0E0,0E0,0E0,0E0,0E0,0E0,0E0,0E0,0E0,0E0,0E0,0E0,0E0,0E0,0E0,0E0,0E0,0E0],"parents":[2147483647,0,0,1,1,2,2,3,3,4,4,5,5,6,6,7,7,8,8,9,9,10,10,11,11,12,12,13,13,14,14,15,15,16,16,17,17,18,18,19,19,20,20,21,21,22,22,23,23,24,24,25,25,26,26,27,27,28,28,29,29,30,30],"right_children":[2,4,6,8,10,12,14,16,18,20,22,24,26,28,30,32,34,36,38,40,42,44,46,48,50,52,54,56,58,60,62,-1,-1,-1,-1,-1,-1,-1,-1,-1,-1,-1,-1,-1,-1,-1,-1,-1,-1,-1,-1,-1,-1,-1,-1,-1,-1,-1,-1,-1,-1,-1,-1],"split_conditions":[-9.2139685E-1,-3.0971584E-1,7.5E-1,-1.1754365E0,1.6666666E-1,-1.0604938E0,4.0213788E-1,1.244607E0,2.1500221E-1,1.118644E0,-6.687426E-2,-1.2050746E-1,4.3568686E-1,-8.854339E-2,-3.6623585E-1,5.5149573E-1,1.0817263E0,3.7069196E-1,6.888574E-2,-1.585899E0,0E0,4.0213788E-1,-7.536412E-2,1.2973195E-1,1.4934194E-1,-9.363649E-1,-2.848971E-1,2.5346234E0,-8.397778E-1,-8.854339E-2,1.0940382E0,-5.9427686E-2,-2.6918526E-3,3.8172673E-2,-4.735555E-2,-1.274644E-2,-4.297587E-2,-7.3874122E-3,2.1991668E-2,5.311795E-3,-5.6062426E-2,-3.350217E-2,4.8955273E-2,-3.2642148E-3,2.038936E-2,-1.2134461E-3,3.7763517E-2,-7.340974E-2,1.3534382E-2,3.0973513E-2,-6.764266E-2,1.21877575E-2,-3.2006975E-3,-4.5714127E-3,1.5925895E-2,-5.2645404E-2,8.265355E-2,-4.4196498E-2,-6.702331E-3,-5.4614555E-2,1.3561146E-2,1.1741417E-2,3.8281854E-2],"split_indices":[22,20,25,20,25,24,20,4,3,20,3,27,26,4,24,28,18,24,32,14,25,20,26,22,21,20,20,27,20,4,20,0,0,0,0,0,0,0,0,0,0,0,0,0,0,0,0,0,0,0,0,0,0,0,0,0,0,0,0,0,0,0,0],"split_type":[0,0,0,0,0,0,0,0,0,0,0,0,0,0,0,0,0,0,0,0,0,0,0,0,0,0,0,0,0,0,0,0,0,0,0,0,0,0,0,0,0,0,0,0,0,0,0,0,0,0,0,0,0,0,0,0,0,0,0,0,0,0,0],"sum_hessian":[1.6495326E4,2.0011957E3,1.449413E4,5.087602E2,1.4924355E3,1.2960256E4,1.5338744E3,1.22501495E2,3.862587E2,1.0922525E2,1.3832103E3,2.227833E2,1.2737473E4,1.1464519E3,3.8742258E2,9.382609E1,2.8675402E1,1.5496426E2,2.3129443E2,7.081598E1,3.840927E1,8.7684357E2,5.0636673E2,8.217673E1,1.4060657E2,1.0154448E4,2.5830247E3,3.1451724E2,8.319346E2,8.566921E1,3.0175336E2,7.5634125E1,1.8191961E1,1.5106451E1,1.3568952E1,9.146087E1,6.3503403E1,1.21572845E2,1.0972159E2,1.608441E1,5.473157E1,1.2805505E1,2.5603767E1,3.197186E2,5.5712494E2,4.479971E1,4.6156702E2,7.5430244E1,6.746485E0,9.059289E1,5.0013676E1,1.5830846E3,8.571363E3,8.817668E2,1.7012578E3,2.9961008E2,1.4907156E1,2.0828757E2,6.2364703E2,5.0323997E1,3.534522E1,1.9666583E2,1.0508753E2],"tree_param":{"num_deleted":"0","num_feature":"40","num_nodes":"63","size_leaf_vector":"1"}},{"base_weights":[-6.059299E-4,-5.340897E-1,8.490883E-3,-1.4119158E0,-2.2959386E-1,1.5741302E-1,-1.6704336E-2,-3.083995E-2,-7.5010926E-2,1.5997568E-1,-9.1060513E-1,-2.5973493E-1,2.8438583E-1,1.2002187E-2,-3.1207663E-1,1.2573262E0,-3.5517126E-1,-1.3341728E0,7.589083E-1,-7.1142876E-1,-8.93724E-2,-7.3444784E-1,3.1946805E-1,-2.8302195E-2,1.5670212E-1,-1.0296772E0,-1.2563878E-1,8.075829E-3,8.605511E-2,-3.9805695E-2,1.2718375E-2,-5.6781624E-3,-7.376656E-2,-2.2262938E-2,8.2214594E-2,-5.679616E-2,-1.0694948E-2,-2.5056124E-2,5.091041E-3,8.77202E-2,-6.6167876E-2,6.051934E-3,2.2531502E-2,6.5921317E-3,-6.2525584E-3,-6.1270855E-3,1.46705825E-2,1.0351745E-2,-5.6164395E-2,-1.995041E-2,2.0796921E-2],"categories":[],"categories_nodes":[],"categories_segments":[],"categories_sizes":[],"default_left":[0,0,0,0,0,0,0,0,0,0,0,0,0,0,0,0,0,0,0,0,0,0,0,0,0,0,0,0,0,0,0,0,0,0,0,0,0,0,0,0,0,0,0,0,0,0,0,0,0,0,0],"id":16,"left_children":[1,3,5,7,9,11,13,-1,-1,15,17,19,21,23,25,27,29,31,33,35,37,39,41,43,45,47,49,-1,-1,-1,-1,-1,-1,-1,-1,-1,-1,-1,-1,-1,-1,-1,-1,-1,-1,-1,-1,-1,-1,-1,-1],"loss_changes":[7.987933E1,7.343886E1,6.0726585E1,4.05101E0,5.4820183E1,1.2411835E2,1.17379555E2,0E0,0E0,7.503401E1,5.414847E1,4.2030926E1,6.4426056E1,7.359143E1,1.6392513E2,2.125618E1,2.4545502E1,1.0221664E1,1.76235E1,3.1367126E1,3.1411049E1,9.038844E1,4.5148987E1,1.529362E2,1.04979904E2,2.9492584E1,1.4443907E2,0E0,0E0,0E0,0E0,0E0,0E0,0E0,0E0,0E0,0E0,0E0,0E0,0E0,0E0,0E0,0E0,0E0,0E0,0E0,0E0,0E0,0E0,0E0,0E0],"parents":[2147483647,0,0,1,1,2,2,3,3,4,4,5,5,6,6,9,9,10,10,11,11,12,12,13,13,14,14,15,15,16,16,17,17,18,18,19,19,20,20,21,21,22,22,23,23,24,24,25,25,26,26],"right_children":[2,4,6,8,10,12,14,-1,-1,16,18,20,22,24,26,28,30,32,34,36,38,40,42,44,46,48,50,-1,-1,-1,-1,-1,-1,-1,-1,-1,-1,-1,-1,-1,-1,-1,-1,-1,-1,-1,-1,-1,-1,-1,-1],"split_conditions":[-1.0604938E0,-5.6427985E-1,-7.1497E-1,-3.2987684E-1,9.745587E-2,-4.9010187E-1,8.333334E-1,-3.083995E-2,-7.5010926E-2,-8.3333336E-2,0E0,-1.3584517E0,-5.8433217E-1,4.3568686E-1,-2.2709194E-1,-1.5064904E-1,8.216812E-2,-1.5460451E-1,-4.5308816E-1,1.4327989E0,2.1500221E-1,-2.816397E-1,-6.269413E-1,-2.600957E-1,-2.848971E-1,-1.1648995E0,4.0213788E-1,8.075829E-3,8.605511E-2,-3.9805695E-2,1.2718375E-2,-5.6781624E-3,-7.376656E-2,-2.2262938E-2,8.2214594E-2,-5.679616E-2,-1.0694948E-2,-2.5056124E-2,5.091041E-3,8.77202E-2,-6.6167876E-2,6.051934E-3,2.2531502E-2,6.5921317E-3,-6.2525584E-3,-6.1270855E-3,1.46705825E-2,1.0351745E-2,-5.6164395E-2,-1.995041E-2,2.0796921E-2],"split_indices":[24,28,27,14,21,20,25,0,0,25,25,20,26,26,28,21,20,14,17,3,3,24,15,20,20,4,20,0,0,0,0,0,0,0,0,0,0,0,0,0,0,0,0,0,0,0,0,0,0,0,0],"split_type":[0,0,0,0,0,0,0,0,0,0,0,0,0,0,0,0,0,0,0,0,0,0,0,0,0,0,0,0,0,0,0,0,0,0,0,0,0,0,0,0,0,0,0,0,0,0,0,0,0,0,0],"sum_hessian":[1.6457844E4,2.749618E2,1.6182881E4,6.987716E1,2.0508464E2,2.3409443E3,1.3841937E4,7.7827625E0,6.20944E1,1.3094386E2,7.414078E1,5.4602496E2,1.7949193E3,1.2616709E4,1.2252281E3,4.137256E1,8.9571304E1,5.929744E1,1.4843333E1,1.4867003E2,3.9735495E2,5.9084743E1,1.7358345E3,9.868706E3,2.7480022E3,2.517434E2,9.734848E2,1.2703944E1,2.8668615E1,5.1795876E1,3.7775425E1,6.3337145E0,5.2963726E1,6.500043E0,8.343291E0,7.953086E1,6.913917E1,1.2548716E2,2.718678E2,1.0926799E1,4.8157944E1,6.9154645E2,1.0442881E3,3.7165247E3,6.1521816E3,9.0320764E2,1.8447946E3,1.7629162E1,2.3411423E2,6.4710956E2,3.2637527E2],"tree_param":{"num_deleted":"0","num_feature":"40","num_nodes":"51","size_leaf_vector":"1"}},{"base_weights":[2.8626733E-3,-4.624898E-1,1.0838817E-2,-1.3943155E0,-1.5509598E-1,2.209158E-2,-3.072076E-1,-7.308183E-2,-2.7977971E-2,2.3054878E-1,-8.43061E-1,1.1805772E-2,3.6103636E-1,-1.2016912E0,-8.4781274E-2,1.197777E0,-2.301095E-1,-1.3400666E0,1.005913E0,4.1283827E-2,-1.473048E-1,-3.2937938E-1,4.9782443E-1,2.3247926E-1,-1.4656781E0,7.773487E-1,-3.0468217E-1,-4.952318E-2,7.616263E-2,2.8664513E-2,-4.530197E-2,-2.6538907E-2,-7.148697E-2,7.799596E-2,-7.401295E-3,-1.3806221E-4,9.944648E-3,-1.6557707E-2,1.4696941E-2,2.6144136E-2,-3.2779068E-2,1.8188015E-2,6.752733E-2,-7.609562E-2,6.348102E-2,-9.0093043E-4,-8.139672E-2,8.526163E-2,2.626141E-2,3.9278967E-3,-2.7820215E-2],"categories":[],"categories_nodes":[],"categories_segments":[],"categories_sizes":[],"default_left":[0,0,0,0,0,0,0,0,0,0,0,0,0,0,0,0,0,0,0,0,0,0,0,0,0,0,0,0,0,0,0,0,0,0,0,0,0,0,0,0,0,0,0,0,0,0,0,0,0,0,0],"id":17,"left_children":[1,3,5,7,9,11,13,-1,-1,15,17,19,21,23,25,27,29,31,33,35,37,39,41,43,45,47,49,-1,-1,-1,-1,-1,-1,-1,-1,-1,-1,-1,-1,-1,-1,-1,-1,-1,-1,-1,-1,-1,-1,-1,-1],"loss_changes":[6.0964478E1,7.906349E1,5.779795E1,3.0333252E0,5.5709846E1,5.437144E1,1.096954E2,0E0,0E0,6.0368645E1,7.061595E1,7.10099E1,4.3544086E1,4.1920746E1,8.422981E1,3.261302E1,5.0586727E1,3.5835724E0,1.0804884E1,8.866974E1,1.9207376E2,2.1626862E1,4.3382095E1,3.4567608E1,2.178952E1,2.0233826E1,3.4167053E1,0E0,0E0,0E0,0E0,0E0,0E0,0E0,0E0,0E0,0E0,0E0,0E0,0E0,0E0,0E0,0E0,0E0,0E0,0E0,0E0,0E0,0E0,0E0,0E0],"parents":[2147483647,0,0,1,1,2,2,3,3,4,4,5,5,6,6,9,9,10,10,11,11,12,12,13,13,14,14,15,15,16,16,17,17,18,18,19,19,20,20,21,21,22,22,23,23,24,24,25,25,26,26],"right_children":[2,4,6,8,10,12,14,-1,-1,16,18,20,22,24,26,28,30,32,34,36,38,40,42,44,46,48,50,-1,-1,-1,-1,-1,-1,-1,-1,-1,-1,-1,-1,-1,-1,-1,-1,-1,-1,-1,-1,-1,-1,-1,-1],"split_conditions":[-1.0604938E0,-5.6427985E-1,6.168983E-1,8.6085725E-1,9.745587E-2,1.3390859E0,4.0076098E-1,-7.308183E-2,-2.7977971E-2,-8.3333336E-2,0E0,7.5E-1,-8.593798E-2,-2.868033E-1,5.5149573E-1,-3.5629705E-1,0E0,1.4934194E-1,4.260286E-1,4.3568686E-1,4.0213788E-1,4.0046565E-2,1.0415545E0,-3.8777652E-1,-9.297293E-1,-3.6623585E-1,-5.7966304E-1,-4.952318E-2,7.616263E-2,2.8664513E-2,-4.530197E-2,-2.6538907E-2,-7.148697E-2,7.799596E-2,-7.401295E-3,-1.3806221E-4,9.944648E-3,-1.6557707E-2,1.4696941E-2,2.6144136E-2,-3.2779068E-2,1.8188015E-2,6.752733E-2,-7.609562E-2,6.348102E-2,-9.0093043E-4,-8.139672E-2,8.526163E-2,2.626141E-2,3.9278967E-3,-2.7820215E-2],"split_indices":[24,28,17,32,21,23,28,0,0,25,25,25,26,22,28,26,35,21,13,26,20,20,27,24,4,24,26,0,0,0,0,0,0,0,0,0,0,0,0,0,0,0,0,0,0,0,0,0,0,0,0],"split_type":[0,0,0,0,0,0,0,0,0,0,0,0,0,0,0,0,0,0,0,0,0,0,0,0,0,0,0,0,0,0,0,0,0,0,0,0,0,0,0,0,0,0,0,0,0,0,0,0,0,0,0],"sum_hessian":[1.6422518E4,2.7577847E2,1.6146739E4,6.753095E1,2.0824751E2,1.5595874E4,5.5086523E2,6.179626E1,5.7346954E0,1.3387025E2,7.437726E1,1.5137537E4,4.5833734E2,1.0882497E2,4.4204028E2,4.2672386E1,9.1197876E1,5.883705E1,1.5540207E1,1.2772032E4,2.365505E3,7.555876E1,3.8277856E2,1.6935934E1,9.188903E1,8.9320564E1,3.5271973E2,5.2606707E0,3.7411716E1,4.173918E1,4.945869E1,6.559277E0,5.2277775E1,1.0261729E1,5.2784786E0,9.983147E3,2.7888843E3,1.6699501E3,6.9555475E2,2.074797E1,5.481079E1,3.320073E2,5.077128E1,6.118568E0,1.0817367E1,9.373064E0,8.251597E1,1.7852842E1,7.146772E1,1.4010362E2,2.1261609E2],"tree_param":{"num_deleted":"0","num_feature":"40","num_nodes":"51","size_leaf_vector":"1"}},{"base_weights":[-1.7181975E-4,-1.01339325E-1,3.495808E-2,3.3538944E-1,-1.4753348E-1,4.1349273E-2,-4.7104657E-1,5.727203E-1,-5.6131047E-1,2.0637001E-1,-2.155371E-1,6.364817E-1,3.4834843E-2,6.562093E-1,-6.436872E-1,-9.232182E-1,7.033488E-1,3.8570032E-1,-9.064105E-1,-1.2682381E-1,5.826309E-1,-4.9875352E-1,-1.3505346E-1,7.686341E-1,-4.7854647E-2,1.0546076E-1,-8.886778E-3,1.1304098E0,-3.422713E-2,-1.0845473E0,2.4678497E-2,9.192839E-3,-8.7631084E-2,-2.8269573E-5,4.2392317E-2,-4.418264E-2,4.1085016E-2,3.6262374E-2,-6.221953E-2,2.384902E-2,-2.8509919E-2,8.184375E-2,2.0252494E-2,-7.4993014E-2,-1.9982036E-2,2.692381E-4,-1.872453E-2,5.6938212E-2,1.1512301E-2,-6.2176296E-3,1.01472875E-2,5.01492E-3,-9.755502E-3,8.087589E-2,2.432845E-2,-3.7810203E-2,-7.201826E-2,-7.264707E-2,1.9624924E-2],"categories":[],"categories_nodes":[],"categories_segments":[],"categories_sizes":[],"default_left":[0,0,0,0,0,0,0,0,0,0,0,0,0,0,0,0,0,0,0,0,0,0,0,0,0,0,0,0,0,0,0,0,0,0,0,0,0,0,0,0,0,0,0,0,0,0,0,0,0,0,0,0,0,0,0,0,0,0,0],"id":18,"left_children":[1,3,5,7,9,11,13,15,17,19,21,23,25,27,29,31,33,35,37,39,41,43,45,47,-1,49,51,53,-1,55,57,-1,-1,-1,-1,-1,-1,-1,-1,-1,-1,-1,-1,-1,-1,-1,-1,-1,-1,-1,-1,-1,-1,-1,-1,-1,-1,-1,-1],"loss_changes":[5.8608677E1,8.5799065E1,3.96048E1,8.691191E1,9.257024E1,4.6845116E1,3.015062E1,6.3615974E1,2.8343674E1,7.782468E1,7.345267E1,2.82887E1,3.6928467E1,1.3987413E1,3.9208546E1,2.4480434E1,3.020076E1,1.3775693E1,3.5688267E1,8.854602E1,5.3899597E1,7.018341E1,8.450429E1,2.3923668E1,0E0,1.0246759E2,1.5022272E2,4.146269E0,0E0,8.274315E0,2.9825891E1,0E0,0E0,0E0,0E0,0E0,0E0,0E0,0E0,0E0,0E0,0E0,0E0,0E0,0E0,0E0,0E0,0E0,0E0,0E0,0E0,0E0,0E0,0E0,0E0,0E0,0E0,0E0,0E0],"parents":[2147483647,0,0,1,1,2,2,3,3,4,4,5,5,6,6,7,7,8,8,9,9,10,10,11,11,12,12,13,13,14,14,15,15,16,16,17,17,18,18,19,19,20,20,21,21,22,22,23,23,25,25,26,26,27,27,29,29,30,30],"right_children":[2,4,6,8,10,12,14,16,18,20,22,24,26,28,30,32,34,36,38,40,42,44,46,48,-1,50,52,54,-1,56,58,-1,-1,-1,-1,-1,-1,-1,-1,-1,-1,-1,-1,-1,-1,-1,-1,-1,-1,-1,-1,-1,-1,-1,-1,-1,-1,-1,-1],"split_conditions":[-3.220072E-1,-7.5E-1,3.0355957E0,2.8231833E-2,-7.1497E-1,-2.5283086E0,-1.2799611E0,-1.2834225E0,-3.2901242E-2,-7.7048576E-1,-4.632827E-1,2.130321E0,-2.1887533E-1,3.169508E0,3.5270333E-1,-3.738726E-1,-1.25E0,-2.0360085E-1,-6.197816E-1,-9.9083894E-1,2.5000003E-1,-5E-1,2.1114008E-1,1.5360507E0,-4.7854647E-2,-2.0792016E-1,-8.3333336E-2,-6.0384225E-2,-3.422713E-2,1.4727913E0,-1E0,9.192839E-3,-8.7631084E-2,-2.8269573E-5,4.2392317E-2,-4.418264E-2,4.1085016E-2,3.6262374E-2,-6.221953E-2,2.384902E-2,-2.8509919E-2,8.184375E-2,2.0252494E-2,-7.4993014E-2,-1.9982036E-2,2.692381E-4,-1.872453E-2,5.6938212E-2,1.1512301E-2,-6.2176296E-3,1.01472875E-2,5.01492E-3,-9.755502E-3,8.087589E-2,2.432845E-2,-3.7810203E-2,-7.201826E-2,-7.264707E-2,1.9624924E-2],"split_indices":[18,25,27,23,27,26,23,26,28,28,28,20,21,18,32,20,25,21,26,22,25,25,27,22,0,20,25,33,0,21,25,0,0,0,0,0,0,0,0,0,0,0,0,0,0,0,0,0,0,0,0,0,0,0,0,0,0,0,0],"split_type":[0,0,0,0,0,0,0,0,0,0,0,0,0,0,0,0,0,0,0,0,0,0,0,0,0,0,0,0,0,0,0,0,0,0,0,0,0,0,0,0,0,0,0,0,0,0,0,0,0,0,0,0,0,0,0,0,0,0,0],"sum_hessian":[1.6488889E4,4.2494336E3,1.2239455E4,4.0588214E2,3.8435515E3,1.2087697E4,1.5175786E2,3.212245E2,8.4657646E1,6.191816E2,3.22437E3,1.2983452E2,1.1957862E4,1.9783117E1,1.3197475E2,2.5310055E1,2.9591443E2,2.2579145E1,6.20785E1,3.2873587E2,2.9044568E2,7.1237494E2,2.511995E3,1.203701E2,9.464415E0,4.571636E3,7.386226E3,1.4730189E1,5.0529284E0,7.9146385E1,5.2828358E1,1.1173785E1,1.41362705E1,5.0568394E1,2.4534604E2,5.510211E0,1.7068933E1,1.0455745E1,5.1622753E1,1.3915439E2,1.895815E2,4.0686245E1,2.4975943E2,6.290082E1,6.494741E2,1.5839377E3,9.280573E2,7.067052E1,4.969959E1,1.3615681E3,3.210068E3,4.656512E3,2.7297139E3,7.5248513E0,7.205338E0,4.278776E1,3.6358624E1,9.941372E0,4.2886986E1],"tree_param":{"num_deleted":"0","num_feature":"40","num_nodes":"59","size_leaf_vector":"1"}},{"base_weights":[-3.9623794E-3,-5.3428452E-2,6.830439E-2,-1.5176455E-2,-4.9826443E-1,5.191034E-1,2.5369374E-2,-8.035456E-2,1.3148017E-1,-2.3911187E-1,-8.943149E-1,6.4582914E-1,-2.556131E-1,1.0224945E-2,9.948625E-1,1.6717699E-1,-2.0100987E-1,-4.7669518E-1,4.0540576E-1,-9.069186E-1,1.7807509E-1,1.0339539E0,-1.0660268E0,3.8081834E-1,1.0033379E0,5.3110953E-2,-1.3240389E0,1.3090889E-1,-7.732139E-2,1.2774127E0,-3.760693E-1,3.0472046E-2,-7.165705E-4,-7.2388925E-2,-6.8290504E-3,-1.894132E-2,-7.085439E-2,1.4855102E-2,4.0053364E-2,-5.638994E-2,2.7371364E-4,2.1532174E-2,-1.816329E-2,7.9384126E-2,1.13487085E-2,-6.736485E-2,-2.3345314E-2,4.035012E-2,3.3375937E-3,5.701378E-2,4.8934263E-3,-4.0107127E-2,2.5356723E-2,-1.9302966E-2,-8.61985E-2,-5.5048313E-2,7.4620335E-3,-1.0161334E-2,3.029776E-3,7.1164705E-2,5.835488E-3,4.6764165E-2,-6.416821E-2],"categories":[],"categories_nodes":[],"categories_segments":[],"categories_sizes":[],"default_left":[0,0,0,0,0,0,0,0,0,0,0,0,0,0,0,0,0,0,0,0,0,0,0,0,0,0,0,0,0,0,0,0,0,0,0,0,0,0,0,0,0,0,0,0,0,0,0,0,0,0,0,0,0,0,0,0,0,0,0,0,0,0,0],"id":19,"left_children":[1,3,5,7,9,11,13,15,17,19,21,23,25,27,29,31,33,35,37,39,41,43,45,47,49,51,53,55,57,59,61,-1,-1,-1,-1,-1,-1,-1,-1,-1,-1,-1,-1,-1,-1,-1,-1,-1,-1,-1,-1,-1,-1,-1,-1,-1,-1,-1,-1,-1,-1,-1,-1],"loss_changes":[5.8683777E1,1.6581932E2,1.2909918E2,8.579882E1,7.8984695E1,5.7110764E1,8.943065E1,1.8562138E2,4.6029092E2,1.3048907E2,1.02036545E2,4.6873764E1,2.7203083E1,6.3392284E1,3.6769646E1,1.6351907E2,3.354225E2,7.8438065E1,8.138071E1,3.628833E1,3.963735E1,1.1004692E1,4.6623383E1,3.8502354E1,2.6140213E1,2.556094E1,6.266384E0,5.7129436E1,6.039679E1,1.3024765E1,2.116666E1,0E0,0E0,0E0,0E0,0E0,0E0,0E0,0E0,0E0,0E0,0E0,0E0,0E0,0E0,0E0,0E0,0E0,0E0,0E0,0E0,0E0,0E0,0E0,0E0,0E0,0E0,0E0,0E0,0E0,0E0,0E0,0E0],"parents":[2147483647,0,0,1,1,2,2,3,3,4,4,5,5,6,6,7,7,8,8,9,9,10,10,11,11,12,12,13,13,14,14,15,15,16,16,17,17,18,18,19,19,20,20,21,21,22,22,23,23,24,24,25,25,26,26,27,27,28,28,29,29,30,30],"right_children":[2,4,6,8,10,12,14,16,18,20,22,24,26,28,30,32,34,36,38,40,42,44,46,48,50,52,54,56,58,60,62,-1,-1,-1,-1,-1,-1,-1,-1,-1,-1,-1,-1,-1,-1,-1,-1,-1,-1,-1,-1,-1,-1,-1,-1,-1,-1,-1,-1,-1,-1,-1,-1],"split_conditions":[4.2916602E-1,3.1962508E-1,5.043167E-1,3.2639956E-1,4.189575E-1,7.727493E-1,0E0,-8.3333336E-2,0E0,-1.509951E-2,-4.945001E-1,5E-1,5.2880114E-1,-1.3807778E-1,4.509974E-1,-6.701837E-1,0E0,-8.3333336E-2,1.3118389E0,8.001055E-1,2.121683E-1,2.5129884E-1,2.65882E-1,4.4076815E-1,8.48027E-1,0E0,-1.0137203E0,-6.38426E-1,9.770347E-1,2.065754E0,1.4558455E0,3.0472046E-2,-7.165705E-4,-7.2388925E-2,-6.8290504E-3,-1.894132E-2,-7.085439E-2,1.4855102E-2,4.0053364E-2,-5.638994E-2,2.7371364E-4,2.1532174E-2,-1.816329E-2,7.9384126E-2,1.13487085E-2,-6.736485E-2,-2.3345314E-2,4.035012E-2,3.3375937E-3,5.701378E-2,4.8934263E-3,-4.0107127E-2,2.5356723E-2,-1.9302966E-2,-8.61985E-2,-5.5048313E-2,7.4620335E-3,-1.0161334E-2,3.029776E-3,7.1164705E-2,5.835488E-3,4.6764165E-2,-6.416821E-2],"split_indices":[28,28,28,20,27,27,29,25,25,22,15,35,17,4,17,20,25,25,20,24,24,22,18,28,24,35,4,17,28,14,15,0,0,0,0,0,0,0,0,0,0,0,0,0,0,0,0,0,0,0,0,0,0,0,0,0,0,0,0,0,0,0,0],"split_type":[0,0,0,0,0,0,0,0,0,0,0,0,0,0,0,0,0,0,0,0,0,0,0,0,0,0,0,0,0,0,0,0,0,0,0,0,0,0,0,0,0,0,0,0,0,0,0,0,0,0,0,0,0,0,0,0,0,0,0,0,0,0,0],"sum_hessian":[1.6414154E4,9.744427E3,6.6697285E3,8.973793E3,7.7063354E2,5.790338E2,6.0906943E3,6.213016E3,2.7607773E3,4.6679416E2,3.038394E2,4.977756E2,8.125821E1,5.9980103E3,9.2684235E1,2.0358871E3,4.177129E3,8.570955E2,1.9036818E3,1.7903395E2,2.8776022E2,2.4433838E1,2.7940555E2,2.870552E2,2.107204E2,6.377932E1,1.747889E1,2.5215374E3,3.476473E3,7.690273E1,1.57815E1,5.9172656E2,1.4441605E3,2.0419833E2,3.9729307E3,7.7757446E2,7.952109E1,1.4959492E3,4.077326E2,1.4394933E2,3.5084625E1,1.9635376E2,9.1406456E1,1.3916949E1,1.051689E1,1.8929031E2,9.0115234E1,1.2112315E2,1.6593205E2,1.8281348E2,2.7906921E1,2.1851135E1,4.1928185E1,5.8123035E0,1.1666585E1,3.610734E1,2.48543E3,1.8171294E3,1.6593435E3,6.811549E1,8.787242E0,6.4410796E0,9.34042E0],"tree_param":{"num_deleted":"0","num_feature":"40","num_nodes":"63","size_leaf_vector":"1"}},{"base_weights":[-1.5669987E-3,-2.3790963E-1,1.4003462E-2,-9.433716E-2,-6.87679E-1,2.5968825E-2,-2.7514026E-1,6.6914564E-1,-1.8298763E-1,-9.6038306E-1,-1.6503205E-3,8.617059E-2,-2.681506E-2,1.545176E-1,-4.9581146E-1,1.0046977E0,-1.1107733E-1,6.9096E-2,-2.3485102E-1,3.491111E-2,-1.0526272E0,-1.9311336E-1,6.6030405E-2,3.2349038E-1,-2.0623244E-1,-6.978713E-2,4.1630458E-2,4.1858128E-1,-3.6010748E-1,-1.366815E0,-3.3392614E-1,1.6930114E-2,6.970871E-2,-7.359614E-2,2.0005237E-2,1.65465E-2,-1.7283287E-2,-7.42255E-2,-4.0207397E-2,-3.769134E-2,1.7255967E-2,3.8935255E-2,1.2320369E-2,-4.3419916E-3,-3.524157E-2,-1.9344313E-2,1.1925536E-2,-1.2830487E-2,3.7115756E-2,1.1313993E-2,-5.1396955E-2,-7.777356E-2,-3.4461287E-3,-2.8896946E-2,1.7129166E-2],"categories":[],"categories_nodes":[],"categories_segments":[],"categories_sizes":[],"default_left":[0,0,0,0,0,0,0,0,0,0,0,0,0,0,0,0,0,0,0,0,0,0,0,0,0,0,0,0,0,0,0,0,0,0,0,0,0,0,0,0,0,0,0,0,0,0,0,0,0,0,0,0,0,0,0],"id":20,"left_children":[1,3,5,7,9,11,13,15,17,19,21,23,25,27,29,31,33,-1,35,-1,37,39,-1,41,43,-1,45,47,49,51,53,-1,-1,-1,-1,-1,-1,-1,-1,-1,-1,-1,-1,-1,-1,-1,-1,-1,-1,-1,-1,-1,-1,-1,-1],"loss_changes":[6.042977E1,6.547704E1,5.3308853E1,5.227516E1,4.591577E1,4.701648E1,5.8130733E1,2.1154743E1,5.6420525E1,2.7604813E1,1.8182768E1,4.7971957E2,7.3876416E2,2.8488625E1,5.661738E1,1.4134907E1,1.803042E1,0E0,4.2111805E1,0E0,1.6702957E1,1.9191793E1,0E0,1.3370288E2,1.8431752E2,0E0,6.336456E2,3.0415367E1,2.8135742E1,1.5347252E1,5.67623E1,0E0,0E0,0E0,0E0,0E0,0E0,0E0,0E0,0E0,0E0,0E0,0E0,0E0,0E0,0E0,0E0,0E0,0E0,0E0,0E0,0E0,0E0,0E0,0E0],"parents":[2147483647,0,0,1,1,2,2,3,3,4,4,5,5,6,6,7,7,8,8,9,9,10,10,11,11,12,12,13,13,14,14,15,15,16,16,18,18,20,20,21,21,23,23,24,24,26,26,27,27,28,28,29,29,30,30],"right_children":[2,4,6,8,10,12,14,16,18,20,22,24,26,28,30,32,34,-1,36,-1,38,40,-1,42,44,-1,46,48,50,52,54,-1,-1,-1,-1,-1,-1,-1,-1,-1,-1,-1,-1,-1,-1,-1,-1,-1,-1,-1,-1,-1,-1,-1,-1],"split_conditions":[-7.748085E-1,5.4284227E-1,6.1378E-1,-2.5536343E-1,3.6175102E-1,-8.3333336E-2,-1.8137798E-1,5.0496125E-1,-8.333334E-1,-7.706344E-1,1.5586306E0,2.1580193E-2,0E0,7.319873E-1,1.21223405E-1,-9.5522605E-2,-4.2673412E-1,6.9096E-2,-7.955258E-1,3.491111E-2,-4.5523378E-1,1.5678857E-1,6.6030405E-2,-1.635497E0,1.2049054E0,-6.978713E-2,-3.0139983E-1,3.414253E-1,6.3204086E-1,4.6401352E-1,8.09017E-1,1.6930114E-2,6.970871E-2,-7.359614E-2,2.0005237E-2,1.65465E-2,-1.7283287E-2,-7.42255E-2,-4.0207397E-2,-3.769134E-2,1.7255967E-2,3.8935255E-2,1.2320369E-2,-4.3419916E-3,-3.524157E-2,-1.9344313E-2,1.1925536E-2,-1.2830487E-2,3.7115756E-2,1.1313993E-2,-5.1396955E-2,-7.777356E-2,-3.4461287E-3,-2.8896946E-2,1.7129166E-2],"split_indices":[24,23,17,21,20,25,21,26,25,14,16,20,25,23,22,4,21,0,16,0,17,26,0,20,20,0,20,23,17,18,35,0,0,0,0,0,0,0,0,0,0,0,0,0,0,0,0,0,0,0,0,0,0,0,0],"split_type":[0,0,0,0,0,0,0,0,0,0,0,0,0,0,0,0,0,0,0,0,0,0,0,0,0,0,0,0,0,0,0,0,0,0,0,0,0,0,0,0,0,0,0,0,0,0,0,0,0,0,0,0,0,0,0],"sum_hessian":[1.6419393E4,1.0139813E3,1.540541E4,7.695426E2,2.4443867E2,1.4794109E4,6.113006E2,7.9377045E1,6.901656E2,1.7462384E2,6.981484E1,6.9111187E3,7.882991E3,2.0752968E2,4.037709E2,5.5304443E1,2.40726E1,2.1316729E1,6.688488E2,8.854012E0,1.6576982E2,6.173025E1,8.08459E0,3.814827E3,3.0962917E3,3.7445264E2,7.5085386E3,1.3727696E2,7.025272E1,6.21167E1,3.4165417E2,2.1095541E1,3.4208904E1,6.060136E0,1.8012463E1,1.0922057E2,5.596283E2,5.8725094E1,1.0704473E2,3.0037546E1,3.1692705E1,5.5111414E2,3.2637126E3,2.4990522E3,5.9723944E2,2.3634475E3,5.145091E3,4.4556225E1,9.272073E1,3.7759388E1,3.2493336E1,5.4060265E1,8.056437E0,2.511953E2,9.045889E1],"tree_param":{"num_deleted":"0","num_feature":"40","num_nodes":"55","size_leaf_vector":"1"}},{"base_weights":[-7.1659856E-3,-1.1450129E0,-3.945955E-3,-7.1923554E-1,-1.2859468E0,-4.7555625E-2,5.9352294E-2,-6.2398948E-2,8.621806E-3,-3.5841346E-2,-6.862156E-2,-1.1872141E-2,-4.602244E-1,7.3008007E-1,3.643918E-2,-7.4976996E-2,1.2626082E-1,-1.1871583E0,-3.5290256E-1,-5.674275E-1,9.180911E-1,-1.2262571E-1,8.718777E-2,7.2201616E-3,-9.094176E-3,-2.0494068E-2,1.8513847E-2,-4.483867E-3,-7.854465E-2,2.909393E-2,-2.2423754E-2,1.6805189E-2,-8.808598E-2,-7.3625185E-2,4.9825788E-2,6.162343E-3,-2.8222268E-2,1.3310417E-2,-2.4470046E-6],"categories":[],"categories_nodes":[],"categories_segments":[],"categories_sizes":[],"default_left":[0,0,0,0,0,0,0,0,0,0,0,0,0,0,0,0,0,0,0,0,0,0,0,0,0,0,0,0,0,0,0,0,0,0,0,0,0,0,0],"id":21,"left_children":[1,3,5,7,9,11,13,-1,-1,-1,-1,15,17,19,21,23,25,27,29,31,33,35,37,-1,-1,-1,-1,-1,-1,-1,-1,-1,-1,-1,-1,-1,-1,-1,-1],"loss_changes":[5.999075E1,1.8477097E0,4.5079E1,6.7024474E0,6.623764E-1,1.4237427E2,1.0235097E2,0E0,0E0,0E0,0E0,7.759341E1,5.961476E1,5.418872E1,5.201692E1,1.4332608E2,3.653438E2,4.1370728E1,6.0291412E1,3.1304512E1,3.7564514E1,1.6939357E2,7.628729E1,0E0,0E0,0E0,0E0,0E0,0E0,0E0,0E0,0E0,0E0,0E0,0E0,0E0,0E0,0E0,0E0],"parents":[2147483647,0,0,1,1,2,2,3,3,4,4,5,5,6,6,11,11,12,12,13,13,14,14,15,15,16,16,17,17,18,18,19,19,20,20,21,21,22,22],"right_children":[2,4,6,8,10,12,14,-1,-1,-1,-1,16,18,20,22,24,26,28,30,32,34,36,38,-1,-1,-1,-1,-1,-1,-1,-1,-1,-1,-1,-1,-1,-1,-1,-1],"split_conditions":[-1.2382289E0,-7.9222284E-2,4.2916602E-1,-2.2621025E-1,-2.8919357E-1,3.1962508E-1,4.4076815E-1,-6.2398948E-2,8.621806E-3,-3.5841346E-2,-6.862156E-2,3.2639956E-1,3.4058145E-1,-1.5845453E0,5.335294E-1,-8.3333336E-2,0E0,-6.299731E-1,3.6467984E-1,3.2954073E-1,-9.2283696E-1,1.8861714E-1,-4.3585294E-1,7.2201616E-3,-9.094176E-3,-2.0494068E-2,1.8513847E-2,-4.483867E-3,-7.854465E-2,2.909393E-2,-2.2423754E-2,1.6805189E-2,-8.808598E-2,-7.3625185E-2,4.9825788E-2,6.162343E-3,-2.8222268E-2,1.3310417E-2,-2.4470046E-6],"split_indices":[24,21,28,27,7,28,28,0,0,0,0,20,28,26,27,25,25,17,28,15,24,15,20,0,0,0,0,0,0,0,0,0,0,0,0,0,0,0,0],"split_type":[0,0,0,0,0,0,0,0,0,0,0,0,0,0,0,0,0,0,0,0,0,0,0,0,0,0,0,0,0,0,0,0,0,0,0,0,0,0,0],"sum_hessian":[1.6373693E4,4.5205063E1,1.6328488E4,1.2759757E1,3.2445305E1,9.66795E3,6.6605376E3,7.759145E0,5.000612E0,5.5053377E0,2.6939968E1,8.899444E3,7.685065E2,2.1899875E2,6.441539E3,6.109039E3,2.7904048E3,9.756922E1,6.7093726E2,2.7461636E1,1.9153711E2,1.5577032E3,4.883836E3,2.0014867E3,4.1075522E3,8.7256384E2,1.9178411E3,2.5596613E1,7.197261E1,6.176214E1,6.091751E2,1.604301E1,1.1418625E1,5.5192533E0,1.8601785E2,1.0012364E3,5.5646686E2,1.5994711E3,3.2843647E3],"tree_param":{"num_deleted":"0","num_feature":"40","num_nodes":"39","size_leaf_vector":"1"}},{"base_weights":[-5.9577683E-3,1.4390549E-1,-3.122364E-2,2.106737E-1,-2.3197918E-1,-5.1521505E-3,-2.950406E-1,1.6492186E-1,6.9687235E-1,-8.675527E-1,-9.781918E-2,-6.488357E-2,7.304617E-2,-1.2949471E0,-1.7345843E-1,-2.1149738E-1,2.2204372E-1,8.667142E-1,-5.8774483E-1,-1.2656913E0,-2.8548765E-1,-2.6423228E-1,5.789598E-1,-3.0187485E-1,-1.9950014E-2,9.076647E-2,-4.977472E-1,-1.4647092E0,4.594549E-4,1.8220541E-1,-3.700456E-1,-1.5656799E-3,-5.0289273E-2,-5.8762473E-3,1.46967545E-2,2.531598E-2,7.0810944E-2,-7.2757594E-2,3.4778673E-2,-3.4526046E-3,-7.469812E-2,1.1935801E-2,-5.5368137E-2,-1.9197E-2,5.9174687E-2,-4.7802955E-2,3.966436E-2,5.5787217E-2,-1.7610645E-2,-5.358306E-3,4.2528543E-3,-1.31106675E-2,6.0816556E-3,4.129899E-2,-3.3270802E-2,-8.1370786E-2,-1.6513951E-2,5.9205707E-2,-7.82039E-2,-5.5746384E-2,1.4567675E-2,-4.2895537E-2,-6.0773003E-3],"categories":[],"categories_nodes":[],"categories_segments":[],"categories_sizes":[],"default_left":[0,0,0,0,0,0,0,0,0,0,0,0,0,0,0,0,0,0,0,0,0,0,0,0,0,0,0,0,0,0,0,0,0,0,0,0,0,0,0,0,0,0,0,0,0,0,0,0,0,0,0,0,0,0,0,0,0,0,0,0,0,0,0],"id":22,"left_children":[1,3,5,7,9,11,13,15,17,19,21,23,25,27,29,31,33,35,37,39,41,43,45,47,49,51,53,55,57,59,61,-1,-1,-1,-1,-1,-1,-1,-1,-1,-1,-1,-1,-1,-1,-1,-1,-1,-1,-1,-1,-1,-1,-1,-1,-1,-1,-1,-1,-1,-1,-1,-1],"loss_changes":[6.185666E1,5.9199383E1,9.6150024E1,4.441597E1,3.0268747E1,5.9433205E1,1.526185E2,3.9417072E1,3.800776E1,1.3987595E1,3.338399E1,7.6813E1,5.577993E1,2.99402E1,7.8522865E1,3.4568764E1,3.8856003E1,2.9424812E1,2.4016073E1,9.860741E0,1.1655874E1,4.1616295E1,2.0020031E1,8.243423E1,5.5555622E1,5.826993E1,3.740872E1,2.1680267E1,3.2915405E1,5.697164E1,8.754636E1,0E0,0E0,0E0,0E0,0E0,0E0,0E0,0E0,0E0,0E0,0E0,0E0,0E0,0E0,0E0,0E0,0E0,0E0,0E0,0E0,0E0,0E0,0E0,0E0,0E0,0E0,0E0,0E0,0E0,0E0,0E0,0E0],"parents":[2147483647,0,0,1,1,2,2,3,3,4,4,5,5,6,6,7,7,8,8,9,9,10,10,11,11,12,12,13,13,14,14,15,15,16,16,17,17,18,18,19,19,20,20,21,21,22,22,23,23,24,24,25,25,26,26,27,27,28,28,29,29,30,30],"right_children":[2,4,6,8,10,12,14,16,18,20,22,24,26,28,30,32,34,36,38,40,42,44,46,48,50,52,54,56,58,60,62,-1,-1,-1,-1,-1,-1,-1,-1,-1,-1,-1,-1,-1,-1,-1,-1,-1,-1,-1,-1,-1,-1,-1,-1,-1,-1,-1,-1,-1,-1,-1,-1],"split_conditions":[-7.1497E-1,9.4222844E-1,8.333334E-1,5.5164105E-1,-9.706956E-1,4.7652003E-1,-5.4962564E-1,-1.3799944E0,-6.1964005E-1,8.001586E-1,1.8261937E0,-5.554265E-1,3.0355957E0,2.8619394E-1,-9.3822896E-1,1.25E0,0E0,-5.426175E-1,5.9536195E-1,2.3469332E-1,-5.1614505E-1,5.9257376E-1,-8.942482E-1,-6.38426E-1,8.3333336E-2,-6.1962134E-1,-1.2799611E0,5.6226814E-1,-3.3065686E-1,-5.712871E-1,-1.9527303E-2,-1.5656799E-3,-5.0289273E-2,-5.8762473E-3,1.46967545E-2,2.531598E-2,7.0810944E-2,-7.2757594E-2,3.4778673E-2,-3.4526046E-3,-7.469812E-2,1.1935801E-2,-5.5368137E-2,-1.9197E-2,5.9174687E-2,-4.7802955E-2,3.966436E-2,5.5787217E-2,-1.7610645E-2,-5.358306E-3,4.2528543E-3,-1.31106675E-2,6.0816556E-3,4.129899E-2,-3.3270802E-2,-8.1370786E-2,-1.6513951E-2,5.9205707E-2,-7.82039E-2,-5.5746384E-2,1.4567675E-2,-4.2895537E-2,-6.0773003E-3],"split_indices":[27,24,25,17,4,27,28,27,22,23,24,17,27,15,21,25,29,15,17,16,2,17,23,17,25,17,23,13,24,27,4,0,0,0,0,0,0,0,0,0,0,0,0,0,0,0,0,0,0,0,0,0,0,0,0,0,0,0,0,0,0,0,0],"split_type":[0,0,0,0,0,0,0,0,0,0,0,0,0,0,0,0,0,0,0,0,0,0,0,0,0,0,0,0,0,0,0,0,0,0,0,0,0,0,0,0,0,0,0,0,0,0,0,0,0,0,0,0,0,0,0,0,0,0,0,0,0,0,0],"sum_hessian":[1.6334237E4,2.355862E3,1.3978375E4,2.0008854E3,3.5497675E2,1.272214E4,1.2562352E3,1.8300178E3,1.708675E2,6.0917557E1,2.9405917E2,7.2128267E3,5.509313E3,1.3514398E2,1.1210912E3,2.4076062E2,1.5892572E3,1.5120207E2,1.9665419E1,3.547666E1,2.5440893E1,2.3651268E2,5.75465E1,1.1486785E3,6.0641484E3,5.3442417E3,1.650711E2,1.1936996E2,1.5774031E1,3.9910574E2,7.219855E2,1.9709024E2,4.3670383E1,2.7756827E2,1.311689E3,9.2474045E1,5.872803E1,1.1654281E1,8.011138E0,5.8920345E0,2.958463E1,1.596667E1,9.474223E0,2.1912846E2,1.738422E1,6.62651E0,5.091999E1,3.8663803E1,1.1100146E3,3.3126929E3,2.7514553E3,4.2914938E2,4.9150923E3,1.8116562E1,1.4695454E2,1.0401671E2,1.5353245E1,9.118535E0,6.655496E0,3.0261263E1,3.6884448E2,2.4281947E2,4.7916602E2],"tree_param":{"num_deleted":"0","num_feature":"40","num_nodes":"63","size_leaf_vector":"1"}},{"base_weights":[3.8636425E-3,-4.5269486E-1,1.1293091E-2,-1.3295823E0,-1.6144602E-1,1.5050091E-1,-1.2243134E-2,-2.9159073E-2,-6.9909185E-2,9.76002E-2,-7.995205E-1,-6.3674307E-1,2.0418689E-1,-8.596423E-2,6.84331E-2,8.006749E-2,-1.17397934E-1,-6.840017E-2,1.0792093E0,-9.883983E-1,-1.253484E-1,-2.3004748E-1,2.5187057E-1,-6.84743E-2,-1.2039741E0,4.928618E-1,2.7698448E-2,2.595534E-2,-3.478666E-2,3.4919945E-3,8.40752E-2,-6.024282E-2,3.0647114E-2,-1.6885752E-2,5.594485E-2,5.5675455E-3,-6.164341E-2,6.6593024E-3,2.4306774E-2,-1.0636342E-3,-1.84051E-2,-1.6055707E-2,-7.110388E-2,3.135369E-2,-1.4896912E-2,6.6988525E-4,4.6227023E-2],"categories":[],"categories_nodes":[],"categories_segments":[],"categories_sizes":[],"default_left":[0,0,0,0,0,0,0,0,0,0,0,0,0,0,0,0,0,0,0,0,0,0,0,0,0,0,0,0,0,0,0,0,0,0,0,0,0,0,0,0,0,0,0,0,0,0,0],"id":23,"left_children":[1,3,5,7,9,11,13,-1,-1,15,17,19,21,23,25,-1,27,-1,29,31,33,35,37,39,41,43,45,-1,-1,-1,-1,-1,-1,-1,-1,-1,-1,-1,-1,-1,-1,-1,-1,-1,-1,-1,-1],"loss_changes":[5.547899E1,6.667113E1,5.273114E1,2.5210419E0,3.2761784E1,9.8501114E1,8.188566E1,0E0,0E0,4.5944973E1,6.2573093E1,2.6641941E1,4.5190674E1,1.4058891E2,1.1364351E2,0E0,4.6285965E1,0E0,8.301096E0,3.1257439E1,1.6704851E1,7.415406E1,5.4555733E1,1.0018443E2,2.0868439E1,6.1280975E1,7.69323E1,0E0,0E0,0E0,0E0,0E0,0E0,0E0,0E0,0E0,0E0,0E0,0E0,0E0,0E0,0E0,0E0,0E0,0E0,0E0,0E0],"parents":[2147483647,0,0,1,1,2,2,3,3,4,4,5,5,6,6,9,9,10,10,11,11,12,12,13,13,14,14,16,16,18,18,19,19,20,20,21,21,22,22,23,23,24,24,25,25,26,26],"right_children":[2,4,6,8,10,12,14,-1,-1,16,18,20,22,24,26,-1,28,-1,30,32,34,36,38,40,42,44,46,-1,-1,-1,-1,-1,-1,-1,-1,-1,-1,-1,-1,-1,-1,-1,-1,-1,-1,-1,-1],"split_conditions":[-1.0604938E0,-5.6427985E-1,-7.1497E-1,-3.383648E-1,1.6338435E-1,-1.3584517E0,4.2916602E-1,-2.9159073E-2,-6.9909185E-2,-4.166667E-1,0E0,1.188505E0,-1.5154994E0,6.1378E-1,5.043167E-1,8.006749E-2,0E0,-6.840017E-2,-4.5308816E-1,9.645693E-1,-7.910491E-1,-1.0717584E0,4.0213788E-1,7.5E-1,-6.930009E-1,7.727493E-1,0E0,2.595534E-2,-3.478666E-2,3.4919945E-3,8.40752E-2,-6.024282E-2,3.0647114E-2,-1.6885752E-2,5.594485E-2,5.5675455E-3,-6.164341E-2,6.6593024E-3,2.4306774E-2,-1.0636342E-3,-1.84051E-2,-1.6055707E-2,-7.110388E-2,3.135369E-2,-1.4896912E-2,6.6988525E-4,4.6227023E-2],"split_indices":[24,28,27,14,15,20,28,0,0,25,25,4,27,17,28,0,35,0,17,21,27,22,20,25,4,27,29,0,0,0,0,0,0,0,0,0,0,0,0,0,0,0,0,0,0,0,0],"split_type":[0,0,0,0,0,0,0,0,0,0,0,0,0,0,0,0,0,0,0,0,0,0,0,0,0,0,0,0,0,0,0,0,0,0,0,0,0,0,0,0,0,0,0,0,0,0,0],"sum_hessian":[1.6353434E4,2.6089413E2,1.6092539E4,6.415928E1,1.9673485E2,2.3265408E3,1.3765998E4,6.200232E0,5.7959045E1,1.4052954E2,5.6205307E1,1.4783582E2,2.178705E3,7.1930234E3,6.572975E3,1.6772234E1,1.2375731E2,4.335762E1,1.2847689E1,8.7046455E1,6.0789356E1,2.1519487E2,1.9635101E3,7.083275E3,1.0974816E2,5.746276E2,5.998347E3,5.896451E1,6.47928E1,5.2183504E0,7.629338E0,7.689934E1,1.0147121E1,5.254893E1,8.240423E0,1.6120389E2,5.3990982E1,1.3042916E3,6.592185E2,6.1202046E3,9.630707E2,2.223113E1,8.751704E1,4.9143066E2,8.319696E1,5.9052E3,9.3147415E1],"tree_param":{"num_deleted":"0","num_feature":"40","num_nodes":"47","size_leaf_vector":"1"}},{"base_weights":[-8.601704E-3,-4.765986E-1,-2.4367056E-3,-1.0232284E0,-3.262633E-1,7.294956E-3,-2.5029975E-1,-8.945645E-6,-1.1587045E0,-2.343113E-1,-6.724035E-2,5.965904E-2,-3.6966365E-2,-9.7785074E-1,-7.4305035E-2,-1.3113291E0,-5.1682857E-3,-5.0619614E-1,2.603325E-1,3.5185027E-1,-1.4010149E-1,-6.901466E-2,3.239704E-2,6.593086E-2,-1.3029609E0,5.43876E-1,-2.2071223E-1,-3.230274E-2,-7.4926734E-2,8.916786E-3,-4.5672115E-2,4.5954626E-2,-3.764263E-2,3.3111766E-2,9.934135E-3,-2.8828336E-3,-3.2211494E-2,-1.7709522E-2,1.0057845E-2,2.3889095E-2,-7.707921E-2,-7.278877E-2,5.550474E-3,3.5598528E-2,-3.277795E-2,-6.5384447E-3,-6.259299E-2],"categories":[],"categories_nodes":[],"categories_segments":[],"categories_sizes":[],"default_left":[0,0,0,0,0,0,0,0,0,0,0,0,0,0,0,0,0,0,0,0,0,0,0,0,0,0,0,0,0,0,0,0,0,0,0,0,0,0,0,0,0,0,0,0,0,0,0],"id":24,"left_children":[1,3,5,7,9,11,13,-1,15,17,-1,19,21,23,25,27,-1,29,31,33,35,-1,37,39,41,43,45,-1,-1,-1,-1,-1,-1,-1,-1,-1,-1,-1,-1,-1,-1,-1,-1,-1,-1,-1,-1],"loss_changes":[4.7166035E1,1.7132988E1,3.8924828E1,6.289242E0,1.5435282E1,3.599101E1,7.798954E1,0E0,6.3188934E0,2.1038551E1,0E0,4.1523538E2,7.8418835E2,4.0354515E1,4.464725E1,3.3813362E0,0E0,2.8223175E1,3.7935604E1,1.3719785E2,1.7558878E2,0E0,5.2221277E2,2.002548E1,1.9723114E1,1.951877E1,3.679368E1,0E0,0E0,0E0,0E0,0E0,0E0,0E0,0E0,0E0,0E0,0E0,0E0,0E0,0E0,0E0,0E0,0E0,0E0,0E0,0E0],"parents":[2147483647,0,0,1,1,2,2,3,3,4,4,5,5,6,6,8,8,9,9,11,11,12,12,13,13,14,14,15,15,17,17,18,18,19,19,20,20,22,22,23,23,24,24,25,25,26,26],"right_children":[2,4,6,8,10,12,14,-1,16,18,-1,20,22,24,26,28,-1,30,32,34,36,-1,38,40,42,44,46,-1,-1,-1,-1,-1,-1,-1,-1,-1,-1,-1,-1,-1,-1,-1,-1,-1,-1,-1,-1],"split_conditions":[-1.0269496E0,-4.5523378E-1,6.1378E-1,-4.166667E-1,1.25E0,-8.3333336E-2,4.0076098E-1,-8.945645E-6,1E0,2.2361876E-1,-6.724035E-2,-2.600957E-1,0E0,-2.868033E-1,5.5149573E-1,-3.0421017E-2,-5.1682857E-3,-4.5061594E-1,2.5000003E-1,1.409351E-1,1.2049054E0,-6.901466E-2,-3.0971584E-1,9.166667E-1,6.2797457E-1,6.1803395E-1,1.6245431E0,-3.230274E-2,-7.4926734E-2,8.916786E-3,-4.5672115E-2,4.5954626E-2,-3.764263E-2,3.3111766E-2,9.934135E-3,-2.8828336E-3,-3.2211494E-2,-1.7709522E-2,1.0057845E-2,2.3889095E-2,-7.707921E-2,-7.278877E-2,5.550474E-3,3.5598528E-2,-3.277795E-2,-6.5384447E-3,-6.259299E-2],"split_indices":[18,17,17,25,25,25,28,0,25,23,0,20,25,22,28,23,0,28,25,3,20,0,20,25,17,36,22,0,0,0,0,0,0,0,0,0,0,0,0,0,0,0,0,0,0,0,0],"split_type":[0,0,0,0,0,0,0,0,0,0,0,0,0,0,0,0,0,0,0,0,0,0,0,0,0,0,0,0,0,0,0,0,0,0,0,0,0,0,0,0,0,0,0,0,0,0,0],"sum_hessian":[1.634698E4,2.1154942E2,1.6135431E4,4.437877E1,1.6717065E2,1.5526785E4,6.0864594E2,5.306676E0,3.907209E1,1.5445667E2,1.2713985E1,7.1122144E3,8.41457E3,1.1766602E2,4.9097995E2,3.3923462E1,5.148628E0,9.9656395E1,5.4800278E1,2.8876565E3,4.224558E3,4.122293E2,8.0023413E3,2.8134876E1,8.953114E1,9.349546E1,3.9748447E2,8.427082E0,2.549638E1,3.738268E1,6.2273712E1,3.3264797E1,2.1535479E1,9.5304443E2,1.9346119E3,3.63174E3,5.92818E2,2.431431E3,5.5709106E3,2.29562E1,5.178677E0,8.0772156E1,8.758989E0,8.2359604E1,1.1135853E1,3.6663135E2,3.0853128E1],"tree_param":{"num_deleted":"0","num_feature":"40","num_nodes":"47","size_leaf_vector":"1"}},{"base_weights":[3.7215685E-3,-4.5759863E-1,1.0939812E-2,-8.8806903E-1,-1.02732204E-1,5.7736677E-3,5.85855E-1,-6.2157947E-1,-6.9979504E-2,7.197719E-1,-7.5164455E-1,1.3074638E-1,-1.5105591E-2,-4.4549677E-1,8.088527E-1,4.322037E-2,-1.0027424E0,1.4177774E0,1.63952E-1,-4.5945164E-2,-1.0233386E0,-6.371804E-1,1.8389809E-1,-1.6226973E-1,2.0082524E-2,2.2413671E-1,-1.2467138E0,5.71892E-1,1.3062999E0,-3.2682743E-2,5.2377652E-2,-6.173667E-2,-1.0816441E-2,1.9028293E-2,8.331605E-2,-2.5171682E-2,7.736977E-2,-5.1298946E-2,4.5797165E-2,-1.4320709E-2,-6.639226E-2,-4.502235E-2,4.060882E-3,-1.5331659E-2,1.1875414E-2,-1.8246083E-2,-7.0316845E-4,3.525511E-2,2.574649E-4,-5.9932407E-2,5.5813737E-2,-8.65432E-2,-2.5633365E-2,-8.104692E-3,3.997316E-2,7.257588E-2,3.1150276E-2],"categories":[],"categories_nodes":[],"categories_segments":[],"categories_sizes":[],"default_left":[0,0,0,0,0,0,0,0,0,0,0,0,0,0,0,0,0,0,0,0,0,0,0,0,0,0,0,0,0,0,0,0,0,0,0,0,0,0,0,0,0,0,0,0,0,0,0,0,0,0,0,0,0,0,0,0,0],"id":25,"left_children":[1,3,5,7,9,11,13,15,-1,17,19,21,23,25,27,29,31,33,35,37,39,41,43,45,47,49,51,53,55,-1,-1,-1,-1,-1,-1,-1,-1,-1,-1,-1,-1,-1,-1,-1,-1,-1,-1,-1,-1,-1,-1,-1,-1,-1,-1,-1,-1],"loss_changes":[5.4490116E1,3.8419205E1,4.784836E1,1.464048E1,7.489793E1,4.1669724E1,3.3357914E1,1.9455753E1,0E0,2.3802128E1,1.4978134E1,9.34274E1,7.086292E1,1.4310373E1,1.32002945E1,2.0894836E1,8.623745E0,6.4117775E0,3.3665268E1,2.2461775E1,1.2305782E1,2.8104385E1,5.631978E1,7.9303696E1,1.12971695E2,2.049616E1,3.398079E0,1.3813692E1,2.8066483E0,0E0,0E0,0E0,0E0,0E0,0E0,0E0,0E0,0E0,0E0,0E0,0E0,0E0,0E0,0E0,0E0,0E0,0E0,0E0,0E0,0E0,0E0,0E0,0E0,0E0,0E0,0E0,0E0],"parents":[2147483647,0,0,1,1,2,2,3,3,4,4,5,5,6,6,7,7,9,9,10,10,11,11,12,12,13,13,14,14,15,15,16,16,17,17,18,18,19,19,20,20,21,21,22,22,23,23,24,24,25,25,26,26,27,27,28,28],"right_children":[2,4,6,8,10,12,14,16,-1,18,20,22,24,26,28,30,32,34,36,38,40,42,44,46,48,50,52,54,56,-1,-1,-1,-1,-1,-1,-1,-1,-1,-1,-1,-1,-1,-1,-1,-1,-1,-1,-1,-1,-1,-1,-1,-1,-1,-1,-1,-1],"split_conditions":[-1.0604938E0,-7.886512E-2,1.6117013E0,-1.2795569E-1,9.745587E-2,-7.1497E-1,-1.9313811E0,0E0,-6.9979504E-2,3.5623215E-2,-1.2050746E-1,-1.3584517E0,-2.9877684E-1,0E0,-1.5348539E0,-6.320996E-2,-2.4931818E-1,-3.738726E-1,2.528142E-2,2.5213113E-1,1.8206744E-1,3.9137647E-1,-1.5154994E0,-3.884606E-2,-2.6389018E-1,1.3732277E0,4.4209045E-1,2.3332103E-1,1.8437035E-1,-3.2682743E-2,5.2377652E-2,-6.173667E-2,-1.0816441E-2,1.9028293E-2,8.331605E-2,-2.5171682E-2,7.736977E-2,-5.1298946E-2,4.5797165E-2,-1.4320709E-2,-6.639226E-2,-4.502235E-2,4.060882E-3,-1.5331659E-2,1.1875414E-2,-1.8246083E-2,-7.0316845E-4,3.525511E-2,2.574649E-4,-5.9932407E-2,5.5813737E-2,-8.65432E-2,-2.5633365E-2,-8.104692E-3,3.997316E-2,7.257588E-2,3.1150276E-2],"split_indices":[24,22,23,15,21,27,22,36,0,27,27,20,27,36,14,13,15,20,15,21,21,15,27,14,27,24,0,18,18,0,0,0,0,0,0,0,0,0,0,0,0,0,0,0,0,0,0,0,0,0,0,0,0,0,0,0,0],"split_type":[0,0,0,0,0,0,0,0,0,0,0,0,0,0,0,0,0,0,0,0,0,0,0,0,0,0,0,0,0,0,0,0,0,0,0,0,0,0,0,0,0,0,0,0,0,0,0,0,0,0,0,0,0,0,0,0,0],"sum_hessian":[1.6361278E4,2.5109854E2,1.611018E4,1.1278377E2,1.3831477E2,1.5967706E4,1.4247456E2,7.5608696E1,3.7175068E1,6.095032E1,7.7364456E1,2.2850837E3,1.3682622E4,2.5151674E1,1.1732288E2,2.787592E1,4.773278E1,2.6331774E1,3.461855E1,2.1830616E1,5.5533844E1,1.4721138E2,2.1378726E3,2.6396086E3,1.1043013E4,1.4093227E1,1.1058448E1,8.092409E1,3.63988E1,1.6663088E1,1.1212832E1,3.6419106E1,1.1313672E1,5.5793686E0,2.0752405E1,2.3781998E1,1.0836551E1,1.0780312E1,1.1050304E1,1.6805088E1,3.8728756E1,1.0754621E2,3.966516E1,2.1016357E2,1.9277089E3,1.1143818E3,1.5252269E3,2.3461243E2,1.08084E4,5.2989216E0,8.794306E0,5.8451943E0,5.2132535E0,1.9220352E1,6.1703735E1,2.9091759E1,7.307039E0],"tree_param":{"num_deleted":"0","num_feature":"40","num_nodes":"57","size_leaf_vector":"1"}},{"base_weights":[2.107413E-3,-1.0316443E0,4.782016E-3,-1.1998487E0,-2.1775745E-2,1.4374047E-2,-2.4180666E-1,-3.379935E-2,-6.413479E-2,-9.0511665E-2,4.2373408E-2,-9.279805E-1,-7.15767E-2,-2.2032957E-1,3.708694E-2,1.756485E-3,1.306789E-1,-3.2223377E-1,-1.3866861E0,-2.740541E-1,5.1904386E-1,4.0964823E-2,-1.28460005E-2,-2.9619697E-3,1.971548E-2,1.6212367E-3,-1.977455E-2,5.409068E-2,4.802752E-3,-7.479732E-2,2.0213518E-2,-2.0894809E-2,-7.633997E-2,-7.154854E-2,-7.1083116E-3,5.079156E-2,4.7242045E-3],"categories":[],"categories_nodes":[],"categories_segments":[],"categories_sizes":[],"default_left":[0,0,0,0,0,0,0,0,0,0,0,0,0,0,0,0,0,0,0,0,0,0,0,0,0,0,0,0,0,0,0,0,0,0,0,0,0],"id":26,"left_children":[1,3,5,7,-1,9,11,-1,-1,13,15,17,19,21,23,25,27,29,31,33,35,-1,-1,-1,-1,-1,-1,-1,-1,-1,-1,-1,-1,-1,-1,-1,-1],"loss_changes":[4.4987396E1,3.6877632E0,3.8387978E1,5.294838E-1,0E0,4.588026E1,7.091531E1,0E0,0E0,5.4536186E1,4.4226414E1,3.3092796E1,5.849786E1,6.2287643E1,5.717717E1,1.0292121E2,1.278295E2,4.6070427E1,8.6449585E0,5.534445E1,2.6252747E1,0E0,0E0,0E0,0E0,0E0,0E0,0E0,0E0,0E0,0E0,0E0,0E0,0E0,0E0,0E0,0E0],"parents":[2147483647,0,0,1,1,2,2,3,3,5,5,6,6,9,9,10,10,11,11,12,12,13,13,14,14,15,15,16,16,17,17,18,18,19,19,20,20],"right_children":[2,4,6,8,-1,10,12,-1,-1,14,16,18,20,22,24,26,28,30,32,34,36,-1,-1,-1,-1,-1,-1,-1,-1,-1,-1,-1,-1,-1,-1,-1,-1],"split_conditions":[-1.2382289E0,2.7563834E-1,6.1378E-1,0E0,-2.1775745E-2,-5.5423844E-1,4.0076098E-1,-3.379935E-2,-6.413479E-2,5.335294E-1,4.3352297E-1,0E0,8.09017E-1,-6.38426E-1,2.4174474E-1,3.1962508E-1,4.4592127E-1,1.6666666E-1,-8.333334E-1,-1.25E0,6.3773435E-1,4.0964823E-2,-1.28460005E-2,-2.9619697E-3,1.971548E-2,1.6212367E-3,-1.977455E-2,5.409068E-2,4.802752E-3,-7.479732E-2,2.0213518E-2,-2.0894809E-2,-7.633997E-2,-7.154854E-2,-7.1083116E-3,5.079156E-2,4.7242045E-3],"split_indices":[24,23,17,35,0,17,28,0,0,27,28,35,35,17,32,28,28,25,25,25,17,0,0,0,0,0,0,0,0,0,0,0,0,0,0,0,0],"split_type":[0,0,0,0,0,0,0,0,0,0,0,0,0,0,0,0,0,0,0,0,0,0,0,0,0,0,0,0,0,0,0,0,0,0,0,0,0],"sum_hessian":[1.6268258E4,4.098907E1,1.6227269E4,3.1178885E1,9.810186E0,1.5620586E4,6.0668207E2,5.508268E0,2.5670616E1,3.2908433E3,1.2329743E4,1.19707214E2,4.8697488E2,1.6308754E3,1.6599678E3,8.445965E3,3.8837788E3,5.231921E1,6.7388E1,3.6304965E2,1.2392523E2,5.4721096E1,1.5761543E3,1.308075E3,3.518928E2,7.841504E3,6.044604E2,1.3535187E2,3.7484268E3,1.9598124E1,3.272109E1,9.017883E0,5.8370117E1,3.6144173E1,3.269055E2,5.64634E1,6.746183E1],"tree_param":{"num_deleted":"0","num_feature":"40","num_nodes":"37","size_leaf_vector":"1"}},{"base_weights":[-3.11045E-4,-2.0871717E-1,1.3971087E-2,6.93553E-2,-2.4029064E-1,2.0611623E-1,2.3711366E-3,-1.3683014E-1,-6.832977E-1,-7.7097785E-1,2.501229E-1,3.0542448E-2,-1.7107396E-1,-8.290831E-1,-1.9422559E-2,-4.0942153E-1,-1.3432406E0,-1.4037753E0,3.2264698E-1,1.68403E-1,8.268668E-1,-1.443362E-2,1.5264046E-1,-3.2690063E-1,2.0192277E-1,-6.904275E-2,-1.181587E-3,6.287293E-3,-3.9789442E-2,2.9336438E-2,-2.9372308E-2,-7.80188E-2,2.7785152E-2,-3.668228E-2,-8.755051E-2,-5.5166114E-2,6.445514E-2,-9.962484E-3,1.564083E-2,-5.5151846E-2,4.825929E-2,1.3044516E-2,-2.7430744E-3,2.4022147E-2,4.140451E-3,-2.458744E-3,-2.7163854E-2,5.3207125E-3,3.8556796E-2],"categories":[],"categories_nodes":[],"categories_segments":[],"categories_sizes":[],"default_left":[0,0,0,0,0,0,0,0,0,0,0,0,0,0,0,0,0,0,0,0,0,0,0,0,0,0,0,0,0,0,0,0,0,0,0,0,0,0,0,0,0,0,0,0,0,0,0,0,0],"id":27,"left_children":[1,3,5,-1,7,9,11,13,15,17,19,21,23,25,27,29,31,33,35,37,39,41,43,45,47,-1,-1,-1,-1,-1,-1,-1,-1,-1,-1,-1,-1,-1,-1,-1,-1,-1,-1,-1,-1,-1,-1,-1,-1],"loss_changes":[4.851851E1,5.3008568E1,3.400141E1,0E0,4.6932407E1,3.753811E1,7.030591E1,6.768745E1,3.4514137E1,2.6526264E1,3.906687E1,6.797676E1,1.1692204E2,5.364041E1,8.048509E1,2.4913433E1,2.4146751E1,4.3123703E0,2.1574389E1,3.8813766E1,2.8554909E1,1.00713165E2,7.6238914E1,8.521297E1,3.215872E1,0E0,0E0,0E0,0E0,0E0,0E0,0E0,0E0,0E0,0E0,0E0,0E0,0E0,0E0,0E0,0E0,0E0,0E0,0E0,0E0,0E0,0E0,0E0,0E0],"parents":[2147483647,0,0,1,1,2,2,4,4,5,5,6,6,7,7,8,8,9,9,10,10,11,11,12,12,13,13,14,14,15,15,16,16,17,17,18,18,19,19,20,20,21,21,22,22,23,23,24,24],"right_children":[2,4,6,-1,8,10,12,14,16,18,20,22,24,26,28,30,32,34,36,38,40,42,44,46,48,-1,-1,-1,-1,-1,-1,-1,-1,-1,-1,-1,-1,-1,-1,-1,-1,-1,-1,-1,-1,-1,-1,-1,-1],"split_conditions":[-7.55395E-1,-8.333334E-1,-1.3519709E0,6.93553E-2,3.808933E-2,5.909563E-1,7.5E-1,-3.3333334E-1,-1.9640276E-2,5E-1,7.4031614E-2,2.9725543E-1,4.0213788E-1,-1.7416723E-1,5.715935E-1,-7.617598E-1,4.5605356E-1,4.642565E-1,-2.6692885E-1,-3.6581457E-3,0E0,-1.1168E0,-6.974135E-1,-8.0572414E-1,4.5896596E-1,-6.904275E-2,-1.181587E-3,6.287293E-3,-3.9789442E-2,2.9336438E-2,-2.9372308E-2,-7.80188E-2,2.7785152E-2,-3.668228E-2,-8.755051E-2,-5.5166114E-2,6.445514E-2,-9.962484E-3,1.564083E-2,-5.5151846E-2,4.825929E-2,1.3044516E-2,-2.7430744E-3,2.4022147E-2,4.140451E-3,-2.458744E-3,-2.7163854E-2,5.3207125E-3,3.8556796E-2],"split_indices":[24,25,21,0,28,23,25,25,26,35,4,26,20,26,26,16,26,23,33,20,25,20,28,22,2,0,0,0,0,0,0,0,0,0,0,0,0,0,0,0,0,0,0,0,0,0,0,0,0],"split_type":[0,0,0,0,0,0,0,0,0,0,0,0,0,0,0,0,0,0,0,0,0,0,0,0,0,0,0,0,0,0,0,0,0,0,0,0,0,0,0,0,0,0,0,0,0,0,0,0,0],"sum_hessian":[1.6298633E4,1.0444412E3,1.5254191E4,1.9430481E1,1.0250106E3,8.675219E2,1.438667E4,8.3201056E2,1.9300009E2,3.667589E1,8.3084607E2,1.2377168E4,2.0095013E3,1.1976953E2,7.12241E2,1.37541E2,5.545909E1,2.3053173E1,1.3622717E1,7.2886395E2,1.0198207E2,9.045899E3,3.331269E3,1.4174553E3,5.92046E2,7.0653915E1,4.911562E1,6.007485E2,1.1149259E2,2.050545E1,1.1703555E2,4.9928314E1,5.530775E0,8.930667E0,1.4122506E1,5.445891E0,8.1768265E0,2.0544809E2,5.234159E2,6.3539286E0,9.562814E1,1.1575103E3,7.888389E3,5.8399615E2,2.747273E3,6.212673E2,7.9618805E2,5.0799606E2,8.4049934E1],"tree_param":{"num_deleted":"0","num_feature":"40","num_nodes":"49","size_leaf_vector":"1"}},{"base_weights":[-1.2162195E-3,-5.9676863E-2,4.1708935E-2,-8.80082E-1,-4.309951E-2,4.9933538E-2,-7.474226E-1,-1.0246367E0,5.7562258E-2,2.9332024E-1,-8.270483E-2,1.237819E-1,-1.231834E-3,1.4534493E-1,-1.2430799E0,-9.670946E-2,-1.2058578E0,4.8076376E-1,-6.420111E-1,-2.504327E-1,3.622159E-2,4.338943E-1,6.0752176E-2,-5.9301265E-2,1.0311989E-1,1.0230048E0,-6.37756E-1,-1.5051541E0,2.9286532E-2,-4.4030454E-2,5.926385E-2,1.2266084E-2,-6.4577386E-2,2.7737757E-2,-7.3725946E-2,1.3791749E-2,-5.616149E-2,-3.9017383E-2,-7.959043E-3,4.4607718E-2,2.3763091E-4,1.7852897E-2,6.0492743E-2,-2.8971178E-2,4.2563598E-3,1.8204552E-3,-8.97773E-3,8.587475E-3,-9.776916E-3,1.314061E-2,7.344018E-2,-6.1516292E-2,3.508766E-2,-8.495467E-2,-2.5423497E-2],"categories":[],"categories_nodes":[],"categories_segments":[],"categories_sizes":[],"default_left":[0,0,0,0,0,0,0,0,0,0,0,0,0,0,0,0,0,0,0,0,0,0,0,0,0,0,0,0,0,0,0,0,0,0,0,0,0,0,0,0,0,0,0,0,0,0,0,0,0,0,0,0,0,0,0],"id":28,"left_children":[1,3,5,7,9,11,13,15,-1,17,19,21,23,25,27,29,31,33,35,37,39,41,43,45,47,49,51,53,-1,-1,-1,-1,-1,-1,-1,-1,-1,-1,-1,-1,-1,-1,-1,-1,-1,-1,-1,-1,-1,-1,-1,-1,-1,-1,-1],